{"learner":{"attributes":{"scikit_learn":"{\"_estimator_type\": \"regressor\"}"},"feature_names":["DEPTH","GR","log_ILD"],"feature_types":["float","float","float"],"gradient_booster":{"model":{"gbtree_model_param":{"num_parallel_tree":"1","num_trees":"100"},"iteration_indptr":[0,1,2,3,4,5,6,7,8,9,10,11,12,13,14,15,16,17,18,19,20,21,22,23,24,25,26,27,28,29,30,31,32,33,34,35,36,37,38,39,40,41,42,43,44,45,46,47,48,49,50,51,52,53,54,55,56,57,58,59,60,61,62,63,64,65,66,67,68,69,70,71,72,73,74,75,76,77,78,79,80,81,82,83,84,85,86,87,88,89,90,91,92,93,94,95,96,97,98,99,100],"tree_info":[0,0,0,0,0,0,0,0,0,0,0,0,0,0,0,0,0,0,0,0,0,0,0,0,0,0,0,0,0,0,0,0,0,0,0,0,0,0,0,0,0,0,0,0,0,0,0,0,0,0,0,0,0,0,0,0,0,0,0,0,0,0,0,0,0,0,0,0,0,0,0,0,0,0,0,0,0,0,0,0,0,0,0,0,0,0,0,0,0,0,0,0,0,0,0,0,0,0,0,0],"trees":[{"base_weights":[-3.4292412E-7,-1.737804E1,1.781438E1,-2.1153727E1,-1.2608154E1,1.1925791E1,2.350478E1,-1.8132025E1,-2.441129E1,-9.473765E0,-1.562831E1,7.651786E0,1.4208966E1,2.1040455E1,2.94508E1,-2.186159E1,-1.6407518E1,-2.8035458E1,-2.2602722E1,-1.101777E1,-3.5804698E0,-1.7040682E1,-9.605226E0,1.0787963E1,4.836805E0,1.7154135E1,1.1181218E1,2.4196104E1,1.7972752E1,3.3307735E1,2.6764513E1,-2.4381187E0,-2.088711E0,-1.5000561E0,-1.8276917E0,-2.620354E0,-2.9597938E0,-2.1098497E0,-2.4248416E0,-9.5212805E-1,-1.2639364E0,-5.178935E-1,1.5235722E-1,-1.8638009E0,-1.5369973E0,-1.1465654E0,-4.792873E-1,7.977461E-1,1.231097E0,2.7322787E-1,6.982763E-1,1.5086361E0,1.8528416E0,9.6389294E-1,1.2987546E0,2.2264667E0,2.6397452E0,1.610444E0,2.0092645E0,3.112774E0,3.666987E0,2.532158E0,3.0944753E0],"categories":[],"categories_nodes":[],"categories_segments":[],"categories_sizes":[],"default_left":[0,0,0,0,0,0,0,0,0,0,0,0,0,0,0,0,0,0,0,0,0,0,0,0,0,0,0,0,0,0,0,0,0,0,0,0,0,0,0,0,0,0,0,0,0,0,0,0,0,0,0,0,0,0,0,0,0,0,0,0,0,0,0],"id":0,"left_children":[1,3,5,7,9,11,13,15,17,19,21,23,25,27,29,31,33,35,37,39,41,43,45,47,49,51,53,55,57,59,61,-1,-1,-1,-1,-1,-1,-1,-1,-1,-1,-1,-1,-1,-1,-1,-1,-1,-1,-1,-1,-1,-1,-1,-1,-1,-1,-1,-1,-1,-1,-1,-1],"loss_changes":[6.1922E6,1.8208025E5,3.30682E5,5.517225E4,4.222325E4,4.7277625E4,7.29675E4,1.851825E4,1.71685E4,1.9969844E4,1.9214875E4,1.4894094E4,2.8022312E4,3.3970125E4,1.4328625E4,1.7619062E3,5.015125E3,1.8005E3,3.986375E3,4.1069844E3,3.7445435E3,4.6345625E3,3.8396172E3,3.3261172E3,4.0184258E3,4.272875E3,4.2291406E3,6.848625E3,6.8293125E3,3.248875E3,4.470125E3,0E0,0E0,0E0,0E0,0E0,0E0,0E0,0E0,0E0,0E0,0E0,0E0,0E0,0E0,0E0,0E0,0E0,0E0,0E0,0E0,0E0,0E0,0E0,0E0,0E0,0E0,0E0,0E0,0E0,0E0,0E0,0E0],"parents":[2147483647,0,0,1,1,2,2,3,3,4,4,5,5,6,6,7,7,8,8,9,9,10,10,11,11,12,12,13,13,14,14,15,15,16,16,17,17,18,18,19,19,20,20,21,21,22,22,23,23,24,24,25,25,26,26,27,27,28,28,29,29,30,30],"right_children":[2,4,6,8,10,12,14,16,18,20,22,24,26,28,30,32,34,36,38,40,42,44,46,48,50,52,54,56,58,60,62,-1,-1,-1,-1,-1,-1,-1,-1,-1,-1,-1,-1,-1,-1,-1,-1,-1,-1,-1,-1,-1,-1,-1,-1,-1,-1,-1,-1,-1,-1,-1,-1],"split_conditions":[6.835285E1,3.175219E1,9.9901306E1,7.35E3,7.214E3,8.6555664E1,1.1591695E2,2.0885687E1,2.116348E1,4.4651543E1,4.519874E1,6.912E3,7.6455E3,7.214E3,5.898E3,1.3386239E1,4.386E3,1.0035E4,1.0519E4,4.233E3,5.5106064E1,3.7153038E1,5.5106064E1,7.889546E1,8.096347E1,9.248081E1,9.466727E1,1.071355E2,1.07464264E2,1.24313995E2,1.26920975E2,-2.4381187E0,-2.088711E0,-1.5000561E0,-1.8276917E0,-2.620354E0,-2.9597938E0,-2.1098497E0,-2.4248416E0,-9.5212805E-1,-1.2639364E0,-5.178935E-1,1.5235722E-1,-1.8638009E0,-1.5369973E0,-1.1465654E0,-4.792873E-1,7.977461E-1,1.231097E0,2.7322787E-1,6.982763E-1,1.5086361E0,1.8528416E0,9.6389294E-1,1.2987546E0,2.2264667E0,2.6397452E0,1.610444E0,2.0092645E0,3.112774E0,3.666987E0,2.532158E0,3.0944753E0],"split_indices":[1,1,1,0,0,1,1,1,1,1,1,0,0,0,0,1,0,0,0,0,1,1,1,1,1,1,1,1,1,1,1,0,0,0,0,0,0,0,0,0,0,0,0,0,0,0,0,0,0,0,0,0,0,0,0,0,0,0,0,0,0,0,0],"split_type":[0,0,0,0,0,0,0,0,0,0,0,0,0,0,0,0,0,0,0,0,0,0,0,0,0,0,0,0,0,0,0,0,0,0,0,0,0,0,0,0,0,0,0,0,0,0,0,0,0,0,0,0,0,0,0,0,0,0,0,0,0,0,0],"sum_hessian":[2E4,1.0124E4,9.876E3,5.649E3,4.475E3,4.855E3,5.021E3,2.934E3,2.715E3,2.198E3,2.277E3,1.692E3,3.163E3,3.553E3,1.468E3,9.24E2,2.01E3,8.99E2,1.816E3,1.741E3,4.57E2,1.843E3,4.34E2,7.99E2,8.93E2,1.601E3,1.562E3,1.748E3,1.805E3,5.98E2,8.7E2,2.51E2,6.73E2,1.152E3,8.58E2,4.22E2,4.77E2,9.56E2,8.6E2,9.09E2,8.32E2,3.48E2,1.09E2,9.37E2,9.06E2,3.12E2,1.22E2,2.83E2,5.16E2,4.52E2,4.41E2,6.44E2,9.57E2,8.46E2,7.16E2,9.37E2,8.11E2,9.64E2,8.41E2,3.69E2,2.29E2,6.52E2,2.18E2],"tree_param":{"num_deleted":"0","num_feature":"3","num_nodes":"63","size_leaf_vector":"1"}},{"base_weights":[1.9675645E-4,-1.5760189E1,1.59189625E1,-1.9379845E1,-1.1900795E1,1.04931135E1,2.1081997E1,-1.634072E1,-2.2037977E1,-9.34077E0,-1.493641E1,5.9685044E0,1.2431996E1,1.8626656E1,2.5974516E1,-1.9384108E1,-1.475448E1,-2.5565968E1,-2.0604849E1,-1.0941214E1,-5.256342E0,-1.6535471E1,-1.1302022E1,8.1547785E0,2.5284715E0,1.4774398E1,9.276527E0,2.118856E1,1.5436061E1,2.9078302E1,2.3244656E1,-2.1649594E0,-1.8480351E0,-1.3568118E0,-1.62325E0,-2.3777297E0,-2.7032373E0,-1.8978014E0,-2.2038424E0,-9.6311855E-1,-1.2711786E0,-6.2575334E-1,-5.9477795E-2,-1.5242532E0,-1.8124284E0,-1.229359E0,-7.2234815E-1,4.7185847E-1,9.2948276E-1,-5.439923E-2,3.9903024E-1,1.2772894E0,1.6102934E0,6.964342E-1,1.0467697E0,1.9698334E0,2.321463E0,1.4068698E0,1.7318258E0,2.7044084E0,3.237761E0,2.1847332E0,2.7032883E0],"categories":[],"categories_nodes":[],"categories_segments":[],"categories_sizes":[],"default_left":[0,0,0,0,0,0,0,0,0,0,0,0,0,0,0,0,0,0,0,0,0,0,0,0,0,0,0,0,0,0,0,0,0,0,0,0,0,0,0,0,0,0,0,0,0,0,0,0,0,0,0,0,0,0,0,0,0,0,0,0,0,0,0],"id":1,"left_children":[1,3,5,7,9,11,13,15,17,19,21,23,25,27,29,31,33,35,37,39,41,43,45,47,49,51,53,55,57,59,61,-1,-1,-1,-1,-1,-1,-1,-1,-1,-1,-1,-1,-1,-1,-1,-1,-1,-1,-1,-1,-1,-1,-1,-1,-1,-1,-1,-1,-1,-1,-1,-1],"loss_changes":[5.0182195E6,1.401785E5,2.7854475E5,4.1526375E4,3.768325E4,4.2508375E4,6.07575E4,1.1411125E4,1.3443125E4,1.72195E4,1.2743969E4,1.0944789E4,2.4971438E4,2.744825E4,1.37365E4,1.2931562E3,2.5800312E3,1.439875E3,4.176125E3,4.2799844E3,3.4779492E3,2.8934375E3,2.6733438E3,3.4465664E3,2.5532986E3,4.9741875E3,3.9206953E3,5.225E3,3.6605625E3,4.439875E3,4.226375E3,0E0,0E0,0E0,0E0,0E0,0E0,0E0,0E0,0E0,0E0,0E0,0E0,0E0,0E0,0E0,0E0,0E0,0E0,0E0,0E0,0E0,0E0,0E0,0E0,0E0,0E0,0E0,0E0,0E0,0E0,0E0,0E0],"parents":[2147483647,0,0,1,1,2,2,3,3,4,4,5,5,6,6,7,7,8,8,9,9,10,10,11,11,12,12,13,13,14,14,15,15,16,16,17,17,18,18,19,19,20,20,21,21,22,22,23,23,24,24,25,25,26,26,27,27,28,28,29,29,30,30],"right_children":[2,4,6,8,10,12,14,16,18,20,22,24,26,28,30,32,34,36,38,40,42,44,46,48,50,52,54,56,58,60,62,-1,-1,-1,-1,-1,-1,-1,-1,-1,-1,-1,-1,-1,-1,-1,-1,-1,-1,-1,-1,-1,-1,-1,-1,-1,-1,-1,-1,-1,-1,-1,-1],"split_conditions":[6.515557E1,3.0513992E1,9.963829E1,6.726E3,7.8365E3,8.481487E1,1.1438996E2,2.0885687E1,1.9759369E1,4.1609486E1,4.120977E1,8.5205E3,8.371E3,7.932E3,6.9565E3,1.3386239E1,4.1345E3,9.831E3,9.8805E3,4.867E3,5.2565765E1,1.06625E4,5.0626225E1,7.5036514E1,7.643975E1,9.1421425E1,9.1016785E1,1.071355E2,1.07464264E2,1.2339687E2,1.25397064E2,-2.1649594E0,-1.8480351E0,-1.3568118E0,-1.62325E0,-2.3777297E0,-2.7032373E0,-1.8978014E0,-2.2038424E0,-9.6311855E-1,-1.2711786E0,-6.2575334E-1,-5.9477795E-2,-1.5242532E0,-1.8124284E0,-1.229359E0,-7.2234815E-1,4.7185847E-1,9.2948276E-1,-5.439923E-2,3.9903024E-1,1.2772894E0,1.6102934E0,6.964342E-1,1.0467697E0,1.9698334E0,2.321463E0,1.4068698E0,1.7318258E0,2.7044084E0,3.237761E0,2.1847332E0,2.7032883E0],"split_indices":[1,1,1,0,0,1,1,1,1,1,1,0,0,0,0,1,0,0,0,0,1,0,1,1,1,1,1,1,1,1,1,0,0,0,0,0,0,0,0,0,0,0,0,0,0,0,0,0,0,0,0,0,0,0,0,0,0,0,0,0,0,0,0],"split_type":[0,0,0,0,0,0,0,0,0,0,0,0,0,0,0,0,0,0,0,0,0,0,0,0,0,0,0,0,0,0,0,0,0,0,0,0,0,0,0,0,0,0,0,0,0,0,0,0,0,0,0,0,0,0,0,0,0,0,0,0,0,0,0],"sum_hessian":[2E4,1.005E4,9.95E3,5.184E3,4.866E3,4.853E3,5.097E3,2.422E3,2.762E3,2.642E3,2.224E3,1.457E3,3.396E3,3.397E3,1.7E3,8.26E2,1.596E3,7.93E2,1.969E3,1.897E3,7.45E2,1.542E3,6.82E2,8.9E2,5.67E2,1.947E3,1.449E3,1.881E3,1.516E3,7.91E2,9.09E2,2.29E2,5.97E2,8.91E2,7.05E2,3.65E2,4.28E2,9.29E2,1.04E3,1.094E3,8.03E2,6.13E2,1.32E2,8.56E2,6.86E2,5.47E2,1.35E2,2.23E2,6.67E2,1.83E2,3.84E2,7.81E2,1.166E3,4.95E2,9.54E2,1.09E3,7.91E2,8.83E2,6.33E2,4.95E2,2.96E2,6.69E2,2.4E2],"tree_param":{"num_deleted":"0","num_feature":"3","num_nodes":"63","size_leaf_vector":"1"}},{"base_weights":[1.9089774E-4,-1.4082246E1,1.4436222E1,-1.6848398E1,-9.730253E0,1.001154E1,1.9436167E1,-1.4137111E1,-1.921157E1,-6.870881E0,-1.1973139E1,6.6233144E0,1.2101395E1,1.759764E1,2.44738E1,-1.6810678E1,-1.2366584E1,-2.1600964E1,-1.7143671E1,-7.964106E0,-1.3119261E0,-1.3098724E1,-7.2555995E0,9.491362E0,4.437476E0,1.5157417E1,9.906105E0,2.0657772E1,1.5355072E1,2.7702911E1,2.226027E1,-1.8358587E0,-1.5343779E0,-1.0888929E0,-1.342381E0,-2.4774451E0,-2.0717015E0,-1.5770084E0,-1.8665808E0,-9.267754E-1,-6.389227E-1,-2.5314972E-1,2.712216E-1,-1.1722215E0,-1.4899644E0,-8.474002E-1,-2.5992048E-1,7.066143E-1,1.0945082E0,2.3001571E-1,6.0271037E-1,1.3673208E0,1.6375732E0,1.1234577E0,8.0993575E-1,1.8989562E0,2.23726E0,1.6893262E0,1.3695601E0,2.653961E0,3.1575506E0,2.119103E0,2.5687978E0],"categories":[],"categories_nodes":[],"categories_segments":[],"categories_sizes":[],"default_left":[0,0,0,0,0,0,0,0,0,0,0,0,0,0,0,0,0,0,0,0,0,0,0,0,0,0,0,0,0,0,0,0,0,0,0,0,0,0,0,0,0,0,0,0,0,0,0,0,0,0,0,0,0,0,0,0,0,0,0,0,0,0,0],"id":2,"left_children":[1,3,5,7,9,11,13,15,17,19,21,23,25,27,29,31,33,35,37,39,41,43,45,47,49,51,53,55,57,59,61,-1,-1,-1,-1,-1,-1,-1,-1,-1,-1,-1,-1,-1,-1,-1,-1,-1,-1,-1,-1,-1,-1,-1,-1,-1,-1,-1,-1,-1,-1,-1,-1],"loss_changes":[4.0662965E6,1.2172375E5,2.1831575E5,3.938275E4,2.5166688E4,3.7037875E4,4.250725E4,1.34533125E4,1.595475E4,1.052132E4,1.16135E4,1.2508594E4,2.1593281E4,2.30155E4,8.2250625E3,2.3227188E3,2.5720938E3,3.7759375E3,3.4189062E3,2.9136562E3,1.4104756E3,4.2354688E3,2.4005E3,2.9722969E3,3.852539E3,2.222625E3,4.443E3,3.68025E3,4.787E3,1.41E3,2.1640938E3,0E0,0E0,0E0,0E0,0E0,0E0,0E0,0E0,0E0,0E0,0E0,0E0,0E0,0E0,0E0,0E0,0E0,0E0,0E0,0E0,0E0,0E0,0E0,0E0,0E0,0E0,0E0,0E0,0E0,0E0,0E0,0E0],"parents":[2147483647,0,0,1,1,2,2,3,3,4,4,5,5,6,6,7,7,8,8,9,9,10,10,11,11,12,12,13,13,14,14,15,15,16,16,17,17,18,18,19,19,20,20,21,21,22,22,23,23,24,24,25,25,26,26,27,27,28,28,29,29,30,30],"right_children":[2,4,6,8,10,12,14,16,18,20,22,24,26,28,30,32,34,36,38,40,42,44,46,48,50,52,54,56,58,60,62,-1,-1,-1,-1,-1,-1,-1,-1,-1,-1,-1,-1,-1,-1,-1,-1,-1,-1,-1,-1,-1,-1,-1,-1,-1,-1,-1,-1,-1,-1,-1,-1],"split_conditions":[6.835285E1,3.324704E1,1.01282684E2,6.726E3,6.5805E3,8.803117E1,1.1755137E2,2.3192005E1,2.431486E1,4.7185337E1,4.5805782E1,6.34E3,6.4805E3,6.4325E3,5.898E3,1.8138414E1,3.1685E3,1.4758974E1,1.008E4,3.881008E1,6.0199314E1,1.0471E4,6.0199314E1,8.02892E1,8.096347E1,9.466727E1,1.0769E4,1.0835303E2,1.0177E4,1.3015129E2,1.2843297E2,-1.8358587E0,-1.5343779E0,-1.0888929E0,-1.342381E0,-2.4774451E0,-2.0717015E0,-1.5770084E0,-1.8665808E0,-9.267754E-1,-6.389227E-1,-2.5314972E-1,2.712216E-1,-1.1722215E0,-1.4899644E0,-8.474002E-1,-2.5992048E-1,7.066143E-1,1.0945082E0,2.3001571E-1,6.0271037E-1,1.3673208E0,1.6375732E0,1.1234577E0,8.0993575E-1,1.8989562E0,2.23726E0,1.6893262E0,1.3695601E0,2.653961E0,3.1575506E0,2.119103E0,2.5687978E0],"split_indices":[1,1,1,0,0,1,1,1,1,1,1,0,0,0,0,1,0,1,0,1,1,0,1,1,1,1,0,1,0,1,1,0,0,0,0,0,0,0,0,0,0,0,0,0,0,0,0,0,0,0,0,0,0,0,0,0,0,0,0,0,0,0,0],"split_type":[0,0,0,0,0,0,0,0,0,0,0,0,0,0,0,0,0,0,0,0,0,0,0,0,0,0,0,0,0,0,0,0,0,0,0,0,0,0,0,0,0,0,0,0,0,0,0,0,0,0,0,0,0,0,0,0,0,0,0,0,0,0,0],"sum_hessian":[2E4,1.0124E4,9.876E3,6.188E3,3.936E3,5.241E3,4.635E3,2.885E3,3.303E3,1.732E3,2.204E3,2.001E3,3.24E3,3.399E3,1.236E3,1.146E3,1.739E3,1.528E3,1.775E3,1.447E3,2.85E2,1.778E3,4.26E2,8.64E2,1.137E3,1.352E3,1.888E3,1.434E3,1.965E3,4.98E2,7.38E2,5.52E2,5.94E2,7.3E2,1.009E3,3.27E2,1.201E3,9.39E2,8.36E2,7.89E2,6.58E2,2.19E2,6.6E1,1.012E3,7.66E2,3.37E2,8.9E1,3.26E2,5.38E2,4.86E2,6.51E2,6.15E2,7.37E2,1.085E3,8.03E2,7.33E2,7.01E2,1.015E3,9.5E2,3.89E2,1.09E2,5.68E2,1.7E2],"tree_param":{"num_deleted":"0","num_feature":"3","num_nodes":"63","size_leaf_vector":"1"}},{"base_weights":[4.7990153E-4,-1.2770337E1,1.2899634E1,-1.6183554E1,-1.0010457E1,8.34733E0,1.6969381E1,-1.4306906E1,-1.9102116E1,-7.6919384E0,-1.2249163E1,4.338769E0,9.761139E0,1.4837815E1,2.0865995E1,-1.6777569E1,-1.3158864E1,-2.1976614E1,-1.7977623E1,-9.354283E0,-4.8806043E0,-1.3704665E1,-9.202581E0,6.2131357E0,1.4681535E0,1.2529069E1,7.9257445E0,1.803152E1,1.3052841E1,2.298292E1,1.8200987E1,-1.4810355E0,-1.7999067E0,-1.1716608E0,-1.4531536E0,-2.3595836E0,-2.0931146E0,-1.7020781E0,-1.9121481E0,-7.8877425E-1,-1.0242493E0,-6.03311E-1,-1.8660295E-1,-1.2733232E0,-1.5171956E0,-9.9268657E-1,-5.4920304E-1,3.768482E-1,7.2562754E-1,-9.8540716E-2,2.6092193E-1,1.0855837E0,1.3878441E0,6.4570326E-1,9.227937E-1,1.6682011E0,1.9472942E0,1.4563837E0,1.148909E0,2.1567705E0,2.6452413E0,1.6312191E0,2.035364E0],"categories":[],"categories_nodes":[],"categories_segments":[],"categories_sizes":[],"default_left":[0,0,0,0,0,0,0,0,0,0,0,0,0,0,0,0,0,0,0,0,0,0,0,0,0,0,0,0,0,0,0,0,0,0,0,0,0,0,0,0,0,0,0,0,0,0,0,0,0,0,0,0,0,0,0,0,0,0,0,0,0,0,0],"id":3,"left_children":[1,3,5,7,9,11,13,15,17,19,21,23,25,27,29,31,33,35,37,39,41,43,45,47,49,51,53,55,57,59,61,-1,-1,-1,-1,-1,-1,-1,-1,-1,-1,-1,-1,-1,-1,-1,-1,-1,-1,-1,-1,-1,-1,-1,-1,-1,-1,-1,-1,-1,-1,-1,-1],"loss_changes":[3.2949845E6,9.4519125E4,1.8421775E5,2.432975E4,2.8764875E4,2.6588469E4,4.332125E4,7.545375E3,5.27775E3,1.27314375E4,1.2409656E4,6.5928574E3,1.7544406E4,1.914125E4,1.00468125E4,1.8119844E3,3.53975E3,3.3390625E2,1.0612812E3,2.1557656E3,3.5255938E3,2.5306875E3,2.409914E3,1.8648418E3,1.3632125E3,2.9718906E3,3.9395312E3,2.0405E3,4.9930938E3,4.4869375E3,3.0264375E3,0E0,0E0,0E0,0E0,0E0,0E0,0E0,0E0,0E0,0E0,0E0,0E0,0E0,0E0,0E0,0E0,0E0,0E0,0E0,0E0,0E0,0E0,0E0,0E0,0E0,0E0,0E0,0E0,0E0,0E0,0E0,0E0],"parents":[2147483647,0,0,1,1,2,2,3,3,4,4,5,5,6,6,7,7,8,8,9,9,10,10,11,11,12,12,13,13,14,14,15,15,16,16,17,17,18,18,19,19,20,20,21,21,22,22,23,23,24,24,25,25,26,26,27,27,28,28,29,29,30,30],"right_children":[2,4,6,8,10,12,14,16,18,20,22,24,26,28,30,32,34,36,38,40,42,44,46,48,50,52,54,56,58,60,62,-1,-1,-1,-1,-1,-1,-1,-1,-1,-1,-1,-1,-1,-1,-1,-1,-1,-1,-1,-1,-1,-1,-1,-1,-1,-1,-1,-1,-1,-1,-1,-1],"split_conditions":[6.515557E1,2.8667542E1,9.907816E1,8.57E3,7.214E3,8.326097E1,1.13465256E2,1.9367447E1,1.8528784E1,3.881008E1,3.997319E1,8.5205E3,5.994E3,5.708E3,8.225E3,3.803E3,4.386E3,1.3386239E1,1.1198E4,3.1685E3,4.7185337E1,1.06625E4,5.0626225E1,7.5036514E1,7.5036514E1,9.1016785E1,9.212225E1,1.0580038E2,9.6315E3,1.24313995E2,1.2079437E2,-1.4810355E0,-1.7999067E0,-1.1716608E0,-1.4531536E0,-2.3595836E0,-2.0931146E0,-1.7020781E0,-1.9121481E0,-7.8877425E-1,-1.0242493E0,-6.03311E-1,-1.8660295E-1,-1.2733232E0,-1.5171956E0,-9.9268657E-1,-5.4920304E-1,3.768482E-1,7.2562754E-1,-9.8540716E-2,2.6092193E-1,1.0855837E0,1.3878441E0,6.4570326E-1,9.227937E-1,1.6682011E0,1.9472942E0,1.4563837E0,1.148909E0,2.1567705E0,2.6452413E0,1.6312191E0,2.035364E0],"split_indices":[1,1,1,0,0,1,1,1,1,1,1,0,0,0,0,0,0,1,0,0,1,0,1,1,1,1,1,1,0,1,1,0,0,0,0,0,0,0,0,0,0,0,0,0,0,0,0,0,0,0,0,0,0,0,0,0,0,0,0,0,0,0,0],"split_type":[0,0,0,0,0,0,0,0,0,0,0,0,0,0,0,0,0,0,0,0,0,0,0,0,0,0,0,0,0,0,0,0,0,0,0,0,0,0,0,0,0,0,0,0,0,0,0,0,0,0,0,0,0,0,0,0,0,0,0,0,0,0,0],"sum_hessian":[2E4,1.005E4,9.95E3,4.491E3,5.559E3,4.698E3,5.252E3,2.737E3,1.754E3,2.733E3,2.826E3,1.226E3,3.472E3,3.398E3,1.854E3,8.64E2,1.873E3,4.88E2,1.266E3,1.716E3,1.017E3,1.91E3,9.16E2,7.41E2,4.85E2,1.382E3,2.09E3,1.215E3,2.183E3,1.029E3,8.25E2,3.36E2,5.28E2,9.18E2,9.55E2,1.83E2,3.05E2,6.98E2,5.68E2,6.51E2,1.065E3,7.35E2,2.82E2,1.155E3,7.55E2,7.65E2,1.51E2,2.23E2,5.18E2,1.54E2,3.31E2,6.21E2,7.61E2,9.85E2,1.105E3,6.34E2,5.81E2,1.106E3,1.077E3,7.36E2,2.93E2,4.44E2,3.81E2],"tree_param":{"num_deleted":"0","num_feature":"3","num_nodes":"63","size_leaf_vector":"1"}},{"base_weights":[3.8614706E-4,-1.1411339E1,1.1698646E1,-1.367686E1,-7.84702E0,8.673626E0,1.6563074E1,-1.2073455E1,-1.6377146E1,-6.1009417E0,-1.03802E1,5.729734E0,1.0567418E1,1.501549E1,2.00492E1,-1.4309729E1,-1.0671323E1,-1.8873888E1,-1.4989125E1,-7.071524E0,-2.0902948E0,-1.1138346E1,-5.581957E0,7.6212535E0,3.280871E0,1.2233775E1,7.7006235E0,1.7962006E1,1.3452987E1,2.3055809E1,1.835831E1,-1.2985281E0,-1.5717314E0,-9.539431E-1,-1.21397E0,-2.1152644E0,-1.8083614E0,-1.4443048E0,-1.6932052E0,-5.615328E-1,-8.25216E-1,-2.988126E-1,1.7520939E-1,-1.2509379E0,-1.009905E0,-6.9303346E-1,-2.5743094E-1,5.556786E-1,8.8780034E-1,1.296896E-1,4.4415003E-1,1.3971472E0,1.0889467E0,6.35343E-1,8.850114E-1,1.9010752E0,1.6560694E0,1.4403409E0,1.1377485E0,2.1889427E0,2.5731037E0,1.736296E0,2.117008E0],"categories":[],"categories_nodes":[],"categories_segments":[],"categories_sizes":[],"default_left":[0,0,0,0,0,0,0,0,0,0,0,0,0,0,0,0,0,0,0,0,0,0,0,0,0,0,0,0,0,0,0,0,0,0,0,0,0,0,0,0,0,0,0,0,0,0,0,0,0,0,0,0,0,0,0,0,0,0,0,0,0,0,0],"id":4,"left_children":[1,3,5,7,9,11,13,15,17,19,21,23,25,27,29,31,33,35,37,39,41,43,45,47,49,51,53,55,57,59,61,-1,-1,-1,-1,-1,-1,-1,-1,-1,-1,-1,-1,-1,-1,-1,-1,-1,-1,-1,-1,-1,-1,-1,-1,-1,-1,-1,-1,-1,-1,-1,-1],"loss_changes":[2.6702135E6,8.16525E4,1.4519625E5,2.6598375E4,1.7350547E4,3.3903125E4,2.0124688E4,1.20351875E4,7.69825E3,9.066805E3,5.7764375E3,1.1031758E4,1.7609719E4,1.18483125E4,5.4790312E3,2.5829688E3,3.8614375E3,1.0924062E3,1.331E3,3.1823828E3,1.5783517E3,1.8471562E3,8.784126E2,3.4428828E3,2.3936123E3,5.3187812E3,2.057586E3,1.018125E3,3.229E3,7.2859375E2,1.7258594E3,0E0,0E0,0E0,0E0,0E0,0E0,0E0,0E0,0E0,0E0,0E0,0E0,0E0,0E0,0E0,0E0,0E0,0E0,0E0,0E0,0E0,0E0,0E0,0E0,0E0,0E0,0E0,0E0,0E0,0E0,0E0,0E0],"parents":[2147483647,0,0,1,1,2,2,3,3,4,4,5,5,6,6,7,7,8,8,9,9,10,10,11,11,12,12,13,13,14,14,15,15,16,16,17,17,18,18,19,19,20,20,21,21,22,22,23,23,24,24,25,25,26,26,27,27,28,28,29,29,30,30],"right_children":[2,4,6,8,10,12,14,16,18,20,22,24,26,28,30,32,34,36,38,40,42,44,46,48,50,52,54,56,58,60,62,-1,-1,-1,-1,-1,-1,-1,-1,-1,-1,-1,-1,-1,-1,-1,-1,-1,-1,-1,-1,-1,-1,-1,-1,-1,-1,-1,-1,-1,-1,-1,-1],"split_conditions":[6.835285E1,3.324704E1,1.0464926E2,8.6675E3,8.371E3,8.992612E1,1.1828902E2,2.2954927E1,2.2211988E1,4.5805782E1,4.826641E1,7.788E3,9.0615E3,5.417E3,5.322E3,4.915E3,5.417E3,1.4116599E1,8.492266E-1,4.287E3,6.0199314E1,3.7666634E1,6.0199314E1,8.167637E1,8.096347E1,4.575E3,9.716049E1,3.411E3,1.096E4,1.2843297E2,1.2843297E2,-1.2985281E0,-1.5717314E0,-9.539431E-1,-1.21397E0,-2.1152644E0,-1.8083614E0,-1.4443048E0,-1.6932052E0,-5.615328E-1,-8.25216E-1,-2.988126E-1,1.7520939E-1,-1.2509379E0,-1.009905E0,-6.9303346E-1,-2.5743094E-1,5.556786E-1,8.8780034E-1,1.296896E-1,4.4415003E-1,1.3971472E0,1.0889467E0,6.35343E-1,8.850114E-1,1.9010752E0,1.6560694E0,1.4403409E0,1.1377485E0,2.1889427E0,2.5731037E0,1.736296E0,2.117008E0],"split_indices":[1,1,1,0,0,1,1,1,1,1,1,0,0,0,0,0,0,1,2,0,1,1,1,1,1,0,1,0,0,1,1,0,0,0,0,0,0,0,0,0,0,0,0,0,0,0,0,0,0,0,0,0,0,0,0,0,0,0,0,0,0,0,0],"split_type":[0,0,0,0,0,0,0,0,0,0,0,0,0,0,0,0,0,0,0,0,0,0,0,0,0,0,0,0,0,0,0,0,0,0,0,0,0,0,0,0,0,0,0,0,0,0,0,0,0,0,0,0,0,0,0,0,0,0,0,0,0,0,0],"sum_hessian":[2E4,1.0124E4,9.876E3,6.188E3,3.936E3,6.091E3,3.785E3,3.886E3,2.302E3,2.332E3,1.604E3,2.386E3,3.705E3,2.625E3,1.16E3,1.494E3,2.392E3,8.18E2,1.484E3,1.877E3,4.55E2,1.384E3,2.2E2,1.345E3,1.041E3,2.341E3,1.364E3,9.06E2,1.719E3,4.13E2,7.47E2,7.75E2,7.19E2,1.355E3,1.037E3,2.04E2,6.14E2,1.165E3,3.19E2,8.43E2,1.034E3,3.69E2,8.6E1,5.92E2,7.92E2,1.51E2,6.9E1,5.11E2,8.34E2,3.85E2,6.56E2,1.017E3,1.324E3,6.31E2,7.33E2,5.11E2,3.95E2,1.175E3,5.44E2,2.94E2,1.19E2,5.57E2,1.9E2],"tree_param":{"num_deleted":"0","num_feature":"3","num_nodes":"63","size_leaf_vector":"1"}},{"base_weights":[5.451273E-4,-1.0271866E1,1.0530885E1,-1.3196826E1,-8.00887E0,7.3701015E0,1.4333887E1,-1.129775E1,-1.51315975E1,-5.7193856E0,-9.538651E0,4.716205E0,8.838205E0,1.27123375E1,1.7405142E1,-1.3634775E1,-1.0426263E1,-1.7360607E1,-1.4236875E1,-7.0519147E0,-2.8448408E0,-1.0596595E1,-6.3499527E0,7.2842684E0,3.2382846E0,1.1028437E1,7.0916405E0,1.54113865E1,1.1291822E1,1.8870779E1,1.46002245E1,-1.2102909E0,-1.4573402E0,-8.787374E-1,-1.1131214E0,-1.6283314E0,-1.8853064E0,-1.3380795E0,-1.5604837E0,-6.473738E-1,-9.053608E-1,-3.5013855E-1,1.7822337E-1,-9.4337606E-1,-1.1728843E0,-7.244793E-1,-3.0473292E-1,4.6920395E-1,8.0783314E-1,4.268063E-1,1.2735438E-1,1.2039686E0,9.7366726E-1,8.067388E-1,5.400527E-1,1.4622296E0,1.6923351E0,1.2092259E0,9.3198293E-1,1.7735487E0,2.159617E0,1.3444623E0,1.6920496E0],"categories":[],"categories_nodes":[],"categories_segments":[],"categories_sizes":[],"default_left":[0,0,0,0,0,0,0,0,0,0,0,0,0,0,0,0,0,0,0,0,0,0,0,0,0,0,0,0,0,0,0,0,0,0,0,0,0,0,0,0,0,0,0,0,0,0,0,0,0,0,0,0,0,0,0,0,0,0,0,0,0,0,0],"id":5,"left_children":[1,3,5,7,9,11,13,15,17,19,21,23,25,27,29,31,33,35,37,39,41,43,45,47,49,51,53,55,57,59,61,-1,-1,-1,-1,-1,-1,-1,-1,-1,-1,-1,-1,-1,-1,-1,-1,-1,-1,-1,-1,-1,-1,-1,-1,-1,-1,-1,-1,-1,-1,-1,-1],"loss_changes":[2.163656E6,6.69135E4,1.186205E5,1.6051E4,1.9947719E4,2.0982219E4,2.21E4,4.4037188E3,4.1085E3,8.751586E3,1.14766875E4,7.27875E3,1.3207344E4,1.1086531E4,6.0800625E3,6.9064844E2,1.785375E3,6.914531E2,1.6227812E3,1.7514531E3,2.2147793E3,3.2704375E3,2.5047227E3,1.4070859E3,2.468996E3,1.8931719E3,3.1493672E3,9.575469E2,2.9305469E3,2.74825E3,1.2070078E3,0E0,0E0,0E0,0E0,0E0,0E0,0E0,0E0,0E0,0E0,0E0,0E0,0E0,0E0,0E0,0E0,0E0,0E0,0E0,0E0,0E0,0E0,0E0,0E0,0E0,0E0,0E0,0E0,0E0,0E0,0E0,0E0],"parents":[2147483647,0,0,1,1,2,2,3,3,4,4,5,5,6,6,7,7,8,8,9,9,10,10,11,11,12,12,13,13,14,14,15,15,16,16,17,17,18,18,19,19,20,20,21,21,22,22,23,23,24,24,25,25,26,26,27,27,28,28,29,29,30,30],"right_children":[2,4,6,8,10,12,14,16,18,20,22,24,26,28,30,32,34,36,38,40,42,44,46,48,50,52,54,56,58,60,62,-1,-1,-1,-1,-1,-1,-1,-1,-1,-1,-1,-1,-1,-1,-1,-1,-1,-1,-1,-1,-1,-1,-1,-1,-1,-1,-1,-1,-1,-1,-1,-1],"split_conditions":[6.835285E1,2.8486551E1,1.0185515E2,7.257E3,6.043E3,8.768805E1,1.1532241E2,1.8138414E1,1.8528784E1,3.997319E1,4.2002182E1,5.6595E3,6.6275E3,5.6595E3,9.0615E3,3.556E3,2.562E3,1.07125E4,1.10975E4,9.072682E-1,5.5106064E1,9.444E3,5.2565765E1,7.728266E1,1.07125E4,4.386E3,1.10045E4,1.1027024E2,1.13495E4,1.25397064E2,1.25397064E2,-1.2102909E0,-1.4573402E0,-8.787374E-1,-1.1131214E0,-1.6283314E0,-1.8853064E0,-1.3380795E0,-1.5604837E0,-6.473738E-1,-9.053608E-1,-3.5013855E-1,1.7822337E-1,-9.4337606E-1,-1.1728843E0,-7.244793E-1,-3.0473292E-1,4.6920395E-1,8.0783314E-1,4.268063E-1,1.2735438E-1,1.2039686E0,9.7366726E-1,8.067388E-1,5.400527E-1,1.4622296E0,1.6923351E0,1.2092259E0,9.3198293E-1,1.7735487E0,2.159617E0,1.3444623E0,1.6920496E0],"split_indices":[1,1,1,0,0,1,1,1,1,1,1,0,0,0,0,0,0,0,0,2,1,0,1,1,0,0,0,1,0,1,1,0,0,0,0,0,0,0,0,0,0,0,0,0,0,0,0,0,0,0,0,0,0,0,0,0,0,0,0,0,0,0,0],"split_type":[0,0,0,0,0,0,0,0,0,0,0,0,0,0,0,0,0,0,0,0,0,0,0,0,0,0,0,0,0,0,0,0,0,0,0,0,0,0,0,0,0,0,0,0,0,0,0,0,0,0,0,0,0,0,0,0,0,0,0,0,0,0,0],"sum_hessian":[2E4,1.0124E4,9.876E3,4.414E3,5.71E3,5.395E3,4.481E3,2.231E3,2.183E3,2.289E3,3.421E3,1.923E3,3.472E3,2.936E3,1.545E3,6.02E2,1.629E3,6.2E2,1.563E3,1.563E3,7.26E2,2.567E3,8.54E2,7.01E2,1.222E3,1.538E3,1.934E3,1.009E3,1.927E3,1.011E3,5.34E2,2.34E2,3.68E2,4.94E2,1.135E3,3.67E2,2.53E2,9.68E2,5.95E2,1.216E3,3.47E2,6.36E2,9E1,1.271E3,1.296E3,6.71E2,1.83E2,1.66E2,5.35E2,8.01E2,4.21E2,8.58E2,6.8E2,1.224E3,7.1E2,6.7E2,3.39E2,1.367E3,5.6E2,7.19E2,2.92E2,3.61E2,1.73E2],"tree_param":{"num_deleted":"0","num_feature":"3","num_nodes":"63","size_leaf_vector":"1"}},{"base_weights":[5.7396176E-4,-9.315662E0,9.410431E0,-1.1394527E1,-6.8068447E0,5.7509904E0,1.22088375E1,-9.767791E0,-1.3220672E1,-5.3513675E0,-8.92787E0,6.99785E0,3.3438818E0,1.0349035E1,1.4870062E1,-1.1142625E1,-8.348816E0,-1.4720829E1,-1.1886674E1,-6.220906E0,-2.5070138E0,-1.00637045E1,-7.1786213E0,4.6741714E0,8.207592E0,4.8691365E-1,4.374895E0,1.18273535E1,8.106415E0,1.7033129E1,1.3410031E1,-1.3513944E0,-1.0633544E0,-7.826539E-1,-1.0385723E0,-1.3878349E0,-1.6267096E0,-1.1209124E0,-1.3178599E0,-4.552074E-1,-6.9292086E-1,-9.075525E-2,-3.6135536E-1,-9.432611E-1,-1.2293364E0,-6.183837E-1,-8.729588E-1,6.448334E-1,3.6703235E-1,9.735881E-1,7.2505933E-1,-1.6812906E-1,1.3820812E-1,3.2538393E-1,5.2388394E-1,1.3425056E0,1.0803463E0,8.737794E-1,6.708823E-1,1.5659924E0,1.9203242E0,1.2470726E0,1.5643417E0],"categories":[],"categories_nodes":[],"categories_segments":[],"categories_sizes":[],"default_left":[0,0,0,0,0,0,0,0,0,0,0,0,0,0,0,0,0,0,0,0,0,0,0,0,0,0,0,0,0,0,0,0,0,0,0,0,0,0,0,0,0,0,0,0,0,0,0,0,0,0,0,0,0,0,0,0,0,0,0,0,0,0,0],"id":6,"left_children":[1,3,5,7,9,11,13,15,17,19,21,23,25,27,29,31,33,35,37,39,41,43,45,47,49,51,53,55,57,59,61,-1,-1,-1,-1,-1,-1,-1,-1,-1,-1,-1,-1,-1,-1,-1,-1,-1,-1,-1,-1,-1,-1,-1,-1,-1,-1,-1,-1,-1,-1,-1,-1],"loss_changes":[1.7534644E6,5.2343375E4,1.01834125E5,1.6194625E4,1.4020156E4,1.2924297E4,2.7750562E4,5.5839688E3,5.000125E3,6.6746094E3,3.6094219E3,7.9478438E3,4.3396445E3,1.0917531E4,7.089E3,1.6368906E3,1.446375E3,1.3544375E3,1.055E3,2.4164531E3,1.1205862E3,1.4614219E3,1.0769453E3,1.7127988E3,2.6600312E3,7.631588E2,1.0318711E3,3.1267188E3,1.1088125E3,2.4706875E3,2.7166875E3,0E0,0E0,0E0,0E0,0E0,0E0,0E0,0E0,0E0,0E0,0E0,0E0,0E0,0E0,0E0,0E0,0E0,0E0,0E0,0E0,0E0,0E0,0E0,0E0,0E0,0E0,0E0,0E0,0E0,0E0,0E0,0E0],"parents":[2147483647,0,0,1,1,2,2,3,3,4,4,5,5,6,6,7,7,8,8,9,9,10,10,11,11,12,12,13,13,14,14,15,15,16,16,17,17,18,18,19,19,20,20,21,21,22,22,23,23,24,24,25,25,26,26,27,27,28,28,29,29,30,30],"right_children":[2,4,6,8,10,12,14,16,18,20,22,24,26,28,30,32,34,36,38,40,42,44,46,48,50,52,54,56,58,60,62,-1,-1,-1,-1,-1,-1,-1,-1,-1,-1,-1,-1,-1,-1,-1,-1,-1,-1,-1,-1,-1,-1,-1,-1,-1,-1,-1,-1,-1,-1,-1,-1],"split_conditions":[6.515557E1,3.1319098E1,9.7692215E1,7.401E3,8.371E3,9.444E3,1.11087326E2,2.4112827E1,2.3403568E1,4.326117E1,3.997319E1,8.481487E1,8.2736725E1,8.816E3,5.898E3,1.3386239E1,1.0799781E0,1.1198E4,1.13495E4,3.1165E3,3.945E3,1.0799781E0,1.1654E4,4.0395E3,4.433E3,7.36818E1,9.073756E1,3.989E3,1.20855E4,1.2079437E2,1.2250385E2,-1.3513944E0,-1.0633544E0,-7.826539E-1,-1.0385723E0,-1.3878349E0,-1.6267096E0,-1.1209124E0,-1.3178599E0,-4.552074E-1,-6.9292086E-1,-9.075525E-2,-3.6135536E-1,-9.432611E-1,-1.2293364E0,-6.183837E-1,-8.729588E-1,6.448334E-1,3.6703235E-1,9.735881E-1,7.2505933E-1,-1.6812906E-1,1.3820812E-1,3.2538393E-1,5.2388394E-1,1.3425056E0,1.0803463E0,8.737794E-1,6.708823E-1,1.5659924E0,1.9203242E0,1.2470726E0,1.5643417E0],"split_indices":[1,1,1,0,0,0,1,1,1,1,1,1,1,0,0,1,2,0,0,0,0,2,0,0,0,1,1,0,0,1,1,0,0,0,0,0,0,0,0,0,0,0,0,0,0,0,0,0,0,0,0,0,0,0,0,0,0,0,0,0,0,0,0],"split_type":[0,0,0,0,0,0,0,0,0,0,0,0,0,0,0,0,0,0,0,0,0,0,0,0,0,0,0,0,0,0,0,0,0,0,0,0,0,0,0,0,0,0,0,0,0,0,0,0,0,0,0,0,0,0,0,0,0,0,0,0,0,0,0],"sum_hessian":[2E4,1.005E4,9.95E3,5.494E3,4.556E3,4.313E3,5.637E3,2.909E3,2.585E3,2.704E3,1.852E3,2.84E3,1.473E3,3.321E3,2.316E3,1.474E3,1.435E3,1.212E3,1.373E3,2.07E3,6.34E2,1.12E3,7.32E2,9.74E2,1.866E3,3.91E2,1.082E3,1.999E3,1.322E3,9.29E2,1.387E3,2.56E2,1.218E3,1.146E3,2.89E2,7.91E2,4.21E2,9.07E2,4.66E2,6.19E2,1.451E3,2.6E2,3.74E2,8.77E2,2.43E2,4.49E2,2.83E2,3.5E2,6.24E2,7.15E2,1.151E3,1.14E2,2.77E2,4.73E2,6.09E2,7.76E2,1.223E3,9.07E2,4.15E2,5.74E2,3.55E2,9.81E2,4.06E2],"tree_param":{"num_deleted":"0","num_feature":"3","num_nodes":"63","size_leaf_vector":"1"}},{"base_weights":[4.5879377E-4,-8.455356E0,8.404015E0,-1.1034514E1,-6.8691573E0,5.0850334E0,1.0989775E1,-9.061632E0,-1.2337159E1,-4.9950166E0,-8.131286E0,2.055197E0,5.9711018E0,9.15733E0,1.320524E1,-1.0713817E1,-8.356568E0,-1.4887794E1,-1.183605E1,-6.276227E0,-3.2285862E0,-9.458533E0,-6.603077E0,4.414191E0,9.007997E-1,7.085745E0,3.804093E0,1.0504058E1,7.1888366E0,1.4262957E1,1.0727833E1,-9.9522156E-1,-1.1893777E0,-7.779853E-1,-1.0167344E0,-1.3794515E0,-1.602072E0,-1.1301128E0,-1.3763428E0,-5.818495E-1,-7.887396E-1,-2.6409975E-1,-5.1851964E-1,-8.95112E-1,-1.1468045E0,-5.51568E-1,-7.870462E-1,3.1583744E-1,5.447664E-1,-7.761866E-2,1.9795905E-1,8.873911E-1,6.32542E-1,2.7822837E-1,4.7158104E-1,1.2064271E0,9.6562386E-1,7.7631277E-1,5.9237784E-1,1.3156148E0,1.6480538E0,9.9264824E-1,1.3043543E0],"categories":[],"categories_nodes":[],"categories_segments":[],"categories_sizes":[],"default_left":[0,0,0,0,0,0,0,0,0,0,0,0,0,0,0,0,0,0,0,0,0,0,0,0,0,0,0,0,0,0,0,0,0,0,0,0,0,0,0,0,0,0,0,0,0,0,0,0,0,0,0,0,0,0,0,0,0,0,0,0,0,0,0],"id":7,"left_children":[1,3,5,7,9,11,13,15,17,19,21,23,25,27,29,31,33,35,37,39,41,43,45,47,49,51,53,55,57,59,61,-1,-1,-1,-1,-1,-1,-1,-1,-1,-1,-1,-1,-1,-1,-1,-1,-1,-1,-1,-1,-1,-1,-1,-1,-1,-1,-1,-1,-1,-1,-1,-1],"loss_changes":[1.4213202E6,4.0712062E4,8.603969E4,9.641219E3,1.4568156E4,1.1786734E4,2.276775E4,1.6729609E3,2.7417812E3,5.6105E3,7.4199844E3,2.7083467E3,8.185539E3,8.1135E3,6.5290312E3,2.851289E2,1.0330781E3,2.3852344E2,1.8167812E3,1.0168203E3,1.1911719E3,1.9081094E3,2.32425E3,4.0719238E2,1.2136453E3,2.9947812E3,1.0647422E3,2.3068438E3,8.6796875E2,4.161875E3,1.2938359E3,0E0,0E0,0E0,0E0,0E0,0E0,0E0,0E0,0E0,0E0,0E0,0E0,0E0,0E0,0E0,0E0,0E0,0E0,0E0,0E0,0E0,0E0,0E0,0E0,0E0,0E0,0E0,0E0,0E0,0E0,0E0,0E0],"parents":[2147483647,0,0,1,1,2,2,3,3,4,4,5,5,6,6,7,7,8,8,9,9,10,10,11,11,12,12,13,13,14,14,15,15,16,16,17,17,18,18,19,19,20,20,21,21,22,22,23,23,24,24,25,25,26,26,27,27,28,28,29,29,30,30],"right_children":[2,4,6,8,10,12,14,16,18,20,22,24,26,28,30,32,34,36,38,40,42,44,46,48,50,52,54,56,58,60,62,-1,-1,-1,-1,-1,-1,-1,-1,-1,-1,-1,-1,-1,-1,-1,-1,-1,-1,-1,-1,-1,-1,-1,-1,-1,-1,-1,-1,-1,-1,-1,-1],"split_conditions":[6.0199314E1,2.680913E1,9.7692215E1,5.708E3,6.043E3,8.096347E1,1.0992028E2,1.7755413E1,1.4758974E1,3.6683273E1,3.6009026E1,5.173E3,9.444E3,8.765E3,9.6315E3,5.8484083E-1,9.072682E-1,9.9305E3,9.072682E-1,9.072682E-1,8.492266E-1,1.0799781E0,9.9305E3,7.5036514E1,7.36818E1,3.803E3,9.073756E1,3.8505E3,1.20855E4,1.2079437E2,1.2339687E2,-9.9522156E-1,-1.1893777E0,-7.779853E-1,-1.0167344E0,-1.3794515E0,-1.602072E0,-1.1301128E0,-1.3763428E0,-5.818495E-1,-7.887396E-1,-2.6409975E-1,-5.1851964E-1,-8.95112E-1,-1.1468045E0,-5.51568E-1,-7.870462E-1,3.1583744E-1,5.447664E-1,-7.761866E-2,1.9795905E-1,8.873911E-1,6.32542E-1,2.7822837E-1,4.7158104E-1,1.2064271E0,9.6562386E-1,7.7631277E-1,5.9237784E-1,1.3156148E0,1.6480538E0,9.9264824E-1,1.3043543E0],"split_indices":[1,1,1,0,0,1,1,1,1,1,1,0,0,0,0,2,2,0,2,2,2,2,0,1,1,0,1,0,0,1,1,0,0,0,0,0,0,0,0,0,0,0,0,0,0,0,0,0,0,0,0,0,0,0,0,0,0,0,0,0,0,0,0],"split_type":[0,0,0,0,0,0,0,0,0,0,0,0,0,0,0,0,0,0,0,0,0,0,0,0,0,0,0,0,0,0,0,0,0,0,0,0,0,0,0,0,0,0,0,0,0,0,0,0,0,0,0,0,0,0,0,0,0,0,0,0,0,0,0],"sum_hessian":[2E4,9.969E3,1.0031E4,3.794E3,6.175E3,4.394E3,5.637E3,1.512E3,2.282E3,2.487E3,3.688E3,9.95E2,3.399E3,3.088E3,2.549E3,4.48E2,1.064E3,3.7E2,1.912E3,1.44E3,1.047E3,1.971E3,1.717E3,3.26E2,6.69E2,2.243E3,1.156E3,1.831E3,1.257E3,1.783E3,7.66E2,2.78E2,1.7E2,8.11E2,2.53E2,1.95E2,1.75E2,1.502E3,4.1E2,1.125E3,3.15E2,8.07E2,2.4E2,1.578E3,3.93E2,9.27E2,7.9E2,1.49E2,1.77E2,2.62E2,4.07E2,6.66E2,1.577E3,5.47E2,6.09E2,6.4E2,1.191E3,8.61E2,3.96E2,1.194E3,5.89E2,5.73E2,1.93E2],"tree_param":{"num_deleted":"0","num_feature":"3","num_nodes":"63","size_leaf_vector":"1"}},{"base_weights":[2.6519803E-4,-7.4436374E0,7.7355795E0,-8.819028E0,-4.579628E0,5.780139E0,1.1064001E1,-7.746232E0,-1.0750486E1,-5.283273E0,-1.4887294E0,4.1545973E0,7.325838E0,1.3382316E1,1.00318E1,-9.189961E0,-6.6238914E0,-1.2243421E1,-9.550237E0,-4.2939587E0,-7.4036655E0,6.2889487E-1,-2.6950026E0,6.097235E0,3.090491E0,8.44679E0,5.3307643E0,1.2174777E1,1.5587131E1,9.120931E0,1.2208503E1,-7.605502E-1,-9.886131E-1,-5.4617244E-1,-7.4101144E-1,-1.3693602E0,-1.1531215E0,-9.0309805E-1,-1.1072594E0,-2.2312497E-1,-4.8204327E-1,-6.8997544E-1,-9.065308E-1,-5.9620675E-2,1.950265E-1,-3.542566E-1,-1.1944026E-1,4.2433438E-1,6.6482276E-1,1.5583743E-1,3.8642192E-1,9.596917E-1,7.4640507E-1,5.9045887E-1,4.2759877E-1,1.2983717E0,1.1031063E0,1.4916204E0,1.9039805E0,9.932867E-1,7.8058624E-1,1.1643409E0,1.5785865E0],"categories":[],"categories_nodes":[],"categories_segments":[],"categories_sizes":[],"default_left":[0,0,0,0,0,0,0,0,0,0,0,0,0,0,0,0,0,0,0,0,0,0,0,0,0,0,0,0,0,0,0,0,0,0,0,0,0,0,0,0,0,0,0,0,0,0,0,0,0,0,0,0,0,0,0,0,0,0,0,0,0,0,0],"id":8,"left_children":[1,3,5,7,9,11,13,15,17,19,21,23,25,27,29,31,33,35,37,39,41,43,45,47,49,51,53,55,57,59,61,-1,-1,-1,-1,-1,-1,-1,-1,-1,-1,-1,-1,-1,-1,-1,-1,-1,-1,-1,-1,-1,-1,-1,-1,-1,-1,-1,-1,-1,-1,-1,-1],"loss_changes":[1.1517338E6,4.0111125E4,6.3778188E4,1.4182875E4,7.1888594E3,1.5499922E4,8.549844E3,7.1172812E3,4.2839688E3,5.6216094E3,1.5726715E3,6.2136836E3,7.0375938E3,2.7787969E3,4.8751094E3,2.0592188E3,2.2401719E3,9.689219E2,9.798203E2,1.9874141E3,6.541953E2,3.6377686E2,4.943352E2,1.0606875E3,2.3055898E3,2.2182969E3,6.6595703E2,5.2753906E2,6.2175E2,1.819875E3,1.3101172E3,0E0,0E0,0E0,0E0,0E0,0E0,0E0,0E0,0E0,0E0,0E0,0E0,0E0,0E0,0E0,0E0,0E0,0E0,0E0,0E0,0E0,0E0,0E0,0E0,0E0,0E0,0E0,0E0,0E0,0E0,0E0,0E0],"parents":[2147483647,0,0,1,1,2,2,3,3,4,4,5,5,6,6,7,7,8,8,9,9,10,10,11,11,12,12,13,13,14,14,15,15,16,16,17,17,18,18,19,19,20,20,21,21,22,22,23,23,24,24,25,25,26,26,27,27,28,28,29,29,30,30],"right_children":[2,4,6,8,10,12,14,16,18,20,22,24,26,28,30,32,34,36,38,40,42,44,46,48,50,52,54,56,58,60,62,-1,-1,-1,-1,-1,-1,-1,-1,-1,-1,-1,-1,-1,-1,-1,-1,-1,-1,-1,-1,-1,-1,-1,-1,-1,-1,-1,-1,-1,-1,-1,-1],"split_conditions":[7.018847E1,3.527032E1,1.0521398E2,8.765E3,4.826641E1,9.313982E1,5.0645E3,2.4809494E1,2.4809494E1,9.394E3,5.469E3,5.417E3,9.1055E3,1.1755137E2,1.1887928E2,3.4585E3,4.181E3,1.7384085E1,7.65128E-1,2.819E3,9.75166E-1,5.5106064E1,6.0199314E1,8.02892E1,8.2736725E1,4.771E3,1.20855E4,3.2675E3,1.327123E2,1.0274E4,1.327123E2,-7.605502E-1,-9.886131E-1,-5.4617244E-1,-7.4101144E-1,-1.3693602E0,-1.1531215E0,-9.0309805E-1,-1.1072594E0,-2.2312497E-1,-4.8204327E-1,-6.8997544E-1,-9.065308E-1,-5.9620675E-2,1.950265E-1,-3.542566E-1,-1.1944026E-1,4.2433438E-1,6.6482276E-1,1.5583743E-1,3.8642192E-1,9.596917E-1,7.4640507E-1,5.9045887E-1,4.2759877E-1,1.2983717E0,1.1031063E0,1.4916204E0,1.9039805E0,9.932867E-1,7.8058624E-1,1.1643409E0,1.5785865E0],"split_indices":[1,1,1,0,1,1,0,1,1,0,0,0,0,1,1,0,0,1,2,0,2,1,1,1,1,0,0,0,1,0,1,0,0,0,0,0,0,0,0,0,0,0,0,0,0,0,0,0,0,0,0,0,0,0,0,0,0,0,0,0,0,0,0],"split_type":[0,0,0,0,0,0,0,0,0,0,0,0,0,0,0,0,0,0,0,0,0,0,0,0,0,0,0,0,0,0,0,0,0,0,0,0,0,0,0,0,0,0,0,0,0,0,0,0,0,0,0,0,0,0,0,0,0,0,0,0,0,0,0],"sum_hessian":[2E4,1.0192E4,9.808E3,6.884E3,3.308E3,6.18E3,3.628E3,4.429E3,2.455E3,2.694E3,6.14E2,3.014E3,3.166E3,1.114E3,2.514E3,1.934E3,2.495E3,1.09E3,1.365E3,1.839E3,8.55E2,2.23E2,3.91E2,1.065E3,1.949E3,2.025E3,1.141E3,7.24E2,3.9E2,1.776E3,7.38E2,5.94E2,1.34E3,1.01E3,1.485E3,3.53E2,7.37E2,1.023E3,3.42E2,3.75E2,1.464E3,6.6E2,1.95E2,1.16E2,1.07E2,2.49E2,1.42E2,2.46E2,8.19E2,6.55E2,1.294E3,9.29E2,1.096E3,7.36E2,4.05E2,4.18E2,3.06E2,3.31E2,5.9E1,1.094E3,6.82E2,6.41E2,9.7E1],"tree_param":{"num_deleted":"0","num_feature":"3","num_nodes":"63","size_leaf_vector":"1"}},{"base_weights":[4.6141664E-4,-6.8514533E0,6.81003E0,-8.797151E0,-5.4435306E0,4.008447E0,8.858545E0,-7.8284917E0,-1.06181755E1,-4.381428E0,-6.967536E0,5.0514956E0,2.2935302E0,7.336002E0,1.0692544E1,-9.413791E0,-7.204738E0,-1.1911166E1,-9.891093E0,-5.3275833E0,-2.7625108E0,-7.8919797E0,-5.6133394E0,2.8482304E0,5.7952876E0,1.205502E-2,3.0737238E0,8.441439E0,5.7001657E0,1.1727045E1,8.870158E0,-8.1938773E-1,-1.0312145E0,-6.7038584E-1,-8.902796E-1,-1.1330425E0,-1.3486491E0,-9.4505566E-1,-1.144071E0,-4.3712926E-1,-6.058093E-1,-2.2529636E-1,-4.7540817E-1,-7.4321663E-1,-9.58131E-1,-4.8095313E-1,-6.698218E-1,1.4714251E-1,3.5840005E-1,7.187821E-1,5.1408476E-1,8.861032E-2,-1.5412337E-1,3.859782E-1,2.3421207E-1,9.9789506E-1,7.834478E-1,6.2899673E-1,4.8277298E-1,1.1005708E0,1.4134166E0,8.5760945E-1,1.3270143E0],"categories":[],"categories_nodes":[],"categories_segments":[],"categories_sizes":[],"default_left":[0,0,0,0,0,0,0,0,0,0,0,0,0,0,0,0,0,0,0,0,0,0,0,0,0,0,0,0,0,0,0,0,0,0,0,0,0,0,0,0,0,0,0,0,0,0,0,0,0,0,0,0,0,0,0,0,0,0,0,0,0,0,0],"id":9,"left_children":[1,3,5,7,9,11,13,15,17,19,21,23,25,27,29,31,33,35,37,39,41,43,45,47,49,51,53,55,57,59,61,-1,-1,-1,-1,-1,-1,-1,-1,-1,-1,-1,-1,-1,-1,-1,-1,-1,-1,-1,-1,-1,-1,-1,-1,-1,-1,-1,-1,-1,-1,-1,-1],"loss_changes":[9.33265E5,2.7263812E4,5.7539E4,7.29725E3,9.336609E3,7.570883E3,1.6100406E4,2.6366406E3,1.2453594E3,5.2131406E3,2.9289062E3,4.301664E3,2.8568516E3,5.682422E3,4.8466562E3,7.582656E2,1.6132891E3,3.2017188E2,5.294844E2,1.4775547E3,1.2689521E3,1.02327344E3,8.11041E2,6.7040576E2,1.7574531E3,5.5800183E2,6.787588E2,1.6846562E3,6.2878906E2,2.747625E3,1.1218438E3,0E0,0E0,0E0,0E0,0E0,0E0,0E0,0E0,0E0,0E0,0E0,0E0,0E0,0E0,0E0,0E0,0E0,0E0,0E0,0E0,0E0,0E0,0E0,0E0,0E0,0E0,0E0,0E0,0E0,0E0,0E0,0E0],"parents":[2147483647,0,0,1,1,2,2,3,3,4,4,5,5,6,6,7,7,8,8,9,9,10,10,11,11,12,12,13,13,14,14,15,15,16,16,17,17,18,18,19,19,20,20,21,21,22,22,23,23,24,24,25,25,26,26,27,27,28,28,29,29,30,30],"right_children":[2,4,6,8,10,12,14,16,18,20,22,24,26,28,30,32,34,36,38,40,42,44,46,48,50,52,54,56,58,60,62,-1,-1,-1,-1,-1,-1,-1,-1,-1,-1,-1,-1,-1,-1,-1,-1,-1,-1,-1,-1,-1,-1,-1,-1,-1,-1,-1,-1,-1,-1,-1,-1],"split_conditions":[6.0199314E1,2.7869768E1,9.716049E1,9.1585E3,8.1245E3,8.9125E3,1.0950648E2,1.8138414E1,1.9759369E1,3.8218494E1,3.7666634E1,8.167637E1,8.167637E1,8.816E3,8.9595E3,4.3365E3,8.855052E-1,1.0799781E0,8.334779E-1,4.181E3,1.0799781E0,1.0799781E0,1.1198E4,7.36818E1,3.803E3,1.20855E4,1.1051E4,3.3135E3,1.1549E4,1.2339687E2,1.327123E2,-8.1938773E-1,-1.0312145E0,-6.7038584E-1,-8.902796E-1,-1.1330425E0,-1.3486491E0,-9.4505566E-1,-1.144071E0,-4.3712926E-1,-6.058093E-1,-2.2529636E-1,-4.7540817E-1,-7.4321663E-1,-9.58131E-1,-4.8095313E-1,-6.698218E-1,1.4714251E-1,3.5840005E-1,7.187821E-1,5.1408476E-1,8.861032E-2,-1.5412337E-1,3.859782E-1,2.3421207E-1,9.9789506E-1,7.834478E-1,6.2899673E-1,4.8277298E-1,1.1005708E0,1.4134166E0,8.5760945E-1,1.3270143E0],"split_indices":[1,1,1,0,0,0,1,1,1,1,1,1,1,0,0,0,2,2,2,0,2,2,0,1,0,0,0,0,0,1,1,0,0,0,0,0,0,0,0,0,0,0,0,0,0,0,0,0,0,0,0,0,0,0,0,0,0,0,0,0,0,0,0],"split_type":[0,0,0,0,0,0,0,0,0,0,0,0,0,0,0,0,0,0,0,0,0,0,0,0,0,0,0,0,0,0,0,0,0,0,0,0,0,0,0,0,0,0,0,0,0,0,0,0,0,0,0,0,0,0,0,0,0,0,0,0,0,0,0],"sum_hessian":[2E4,9.969E3,1.0031E4,4.183E3,5.786E3,4.238E3,5.793E3,2.734E3,1.449E3,3.412E3,2.374E3,2.634E3,1.604E3,3.168E3,2.625E3,7.68E2,1.966E3,5.16E2,9.33E2,2.152E3,1.26E3,1.408E3,9.66E2,6.66E2,1.968E3,4.09E2,1.195E3,1.888E3,1.28E3,1.671E3,9.54E2,3.3E2,4.38E2,1.522E3,4.44E2,3.83E2,1.33E2,7.32E2,2.01E2,9.35E2,1.217E3,1.005E3,2.55E2,1.111E3,2.97E2,5.58E2,4.08E2,2.33E2,4.33E2,6.26E2,1.342E3,2.62E2,1.47E2,5.74E2,6.21E2,5.3E2,1.358E3,7.6E2,5.2E2,1.29E3,3.81E2,8.97E2,5.7E1],"tree_param":{"num_deleted":"0","num_feature":"3","num_nodes":"63","size_leaf_vector":"1"}},{"base_weights":[2.80745E-4,-6.033139E0,6.269895E0,-7.239242E0,-3.8402236E0,4.587518E0,8.860465E0,-5.7682366E0,-8.21102E0,-2.0889428E0,-4.7277584E0,3.1181529E0,5.688949E0,1.0839048E1,7.9866443E0,-7.2243056E0,-5.043558E0,-9.341193E0,-7.2020826E0,-2.7872767E0,4.6008667E-1,-5.295386E0,-2.2817976E0,3.9737535E0,1.3737406E0,7.2681108E0,4.7340045E0,9.907858E0,1.2858798E1,7.1258903E0,9.680181E0,-8.857153E-1,-6.731715E-1,-4.6809205E-1,-6.621415E-1,-8.863042E-1,-1.1029953E0,-6.7078996E-1,-8.626942E-1,-2.3300897E-1,-4.5504886E-1,9.915723E-2,-1.8813315E-1,-4.8156282E-1,-7.1056587E-1,-1.4197241E-1,-3.4830135E-1,5.267636E-1,3.3244655E-1,-6.35708E-2,1.7453934E-1,8.4708303E-1,6.8545824E-1,5.391841E-1,3.5656837E-1,1.0790684E0,9.2190963E-1,1.241608E0,1.7133168E0,7.612414E-1,5.6944394E-1,9.278765E-1,1.2874652E0],"categories":[],"categories_nodes":[],"categories_segments":[],"categories_sizes":[],"default_left":[0,0,0,0,0,0,0,0,0,0,0,0,0,0,0,0,0,0,0,0,0,0,0,0,0,0,0,0,0,0,0,0,0,0,0,0,0,0,0,0,0,0,0,0,0,0,0,0,0,0,0,0,0,0,0,0,0,0,0,0,0,0,0],"id":10,"left_children":[1,3,5,7,9,11,13,15,17,19,21,23,25,27,29,31,33,35,37,39,41,43,45,47,49,51,53,55,57,59,61,-1,-1,-1,-1,-1,-1,-1,-1,-1,-1,-1,-1,-1,-1,-1,-1,-1,-1,-1,-1,-1,-1,-1,-1,-1,-1,-1,-1,-1,-1,-1,-1],"loss_changes":[7.5662E5,2.69315E4,4.2710062E4,9.351531E3,5.6152188E3,9.610148E3,6.5888438E3,2.727086E3,4.4447812E3,2.1711934E3,3.3214531E3,3.801961E3,5.0913203E3,2.0919062E3,3.8406094E3,6.3852734E2,9.714844E2,1.4065781E3,1.4173047E3,7.608511E2,3.2915054E2,1.6576055E3,4.6518848E2,1.4199023E3,6.2918274E2,5.780547E2,1.6108945E3,3.9426562E2,4.8554688E2,1.1976875E3,1.0359062E3,0E0,0E0,0E0,0E0,0E0,0E0,0E0,0E0,0E0,0E0,0E0,0E0,0E0,0E0,0E0,0E0,0E0,0E0,0E0,0E0,0E0,0E0,0E0,0E0,0E0,0E0,0E0,0E0,0E0,0E0,0E0,0E0],"parents":[2147483647,0,0,1,1,2,2,3,3,4,4,5,5,6,6,7,7,8,8,9,9,10,10,11,11,12,12,13,13,14,14,15,15,16,16,17,17,18,18,19,19,20,20,21,21,22,22,23,23,24,24,25,25,26,26,27,27,28,28,29,29,30,30],"right_children":[2,4,6,8,10,12,14,16,18,20,22,24,26,28,30,32,34,36,38,40,42,44,46,48,50,52,54,56,58,60,62,-1,-1,-1,-1,-1,-1,-1,-1,-1,-1,-1,-1,-1,-1,-1,-1,-1,-1,-1,-1,-1,-1,-1,-1,-1,-1,-1,-1,-1,-1,-1,-1],"split_conditions":[7.018847E1,3.4311974E1,1.04323875E2,5.898E3,5.322E3,9.1016785E1,5.0645E3,2.2211988E1,2.5059298E1,4.6442806E1,4.7185337E1,9.1585E3,5.898E3,1.1828902E2,1.1694907E2,1.3386239E1,1.4638424E0,1.0799781E0,1.13495E4,1.4153957E0,8.0336285E-1,9.75166E-1,1.0274E4,3.945E3,7.728266E1,2.216E3,1.08595E4,2.661E3,1.3610313E2,1.1448E4,1.327123E2,-8.857153E-1,-6.731715E-1,-4.6809205E-1,-6.621415E-1,-8.863042E-1,-1.1029953E0,-6.7078996E-1,-8.626942E-1,-2.3300897E-1,-4.5504886E-1,9.915723E-2,-1.8813315E-1,-4.8156282E-1,-7.1056587E-1,-1.4197241E-1,-3.4830135E-1,5.267636E-1,3.3244655E-1,-6.35708E-2,1.7453934E-1,8.4708303E-1,6.8545824E-1,5.391841E-1,3.5656837E-1,1.0790684E0,9.2190963E-1,1.241608E0,1.7133168E0,7.612414E-1,5.6944394E-1,9.278765E-1,1.2874652E0],"split_indices":[1,1,1,0,0,1,0,1,1,1,1,0,0,1,1,1,2,2,0,2,2,2,0,0,1,0,0,0,1,0,1,0,0,0,0,0,0,0,0,0,0,0,0,0,0,0,0,0,0,0,0,0,0,0,0,0,0,0,0,0,0,0,0],"split_type":[0,0,0,0,0,0,0,0,0,0,0,0,0,0,0,0,0,0,0,0,0,0,0,0,0,0,0,0,0,0,0,0,0,0,0,0,0,0,0,0,0,0,0,0,0,0,0,0,0,0,0,0,0,0,0,0,0,0,0,0,0,0,0],"sum_hessian":[2E4,1.0192E4,9.808E3,6.574E3,3.618E3,5.948E3,3.86E3,2.618E3,3.956E3,1.218E3,2.4E3,2.55E3,3.398E3,1.179E3,2.681E3,8.67E2,1.751E3,1.862E3,2.094E3,9.56E2,2.62E2,1.947E3,4.53E2,1.71E3,8.4E2,1.278E3,2.12E3,8.11E2,3.68E2,1.781E3,9E2,1.97E2,6.7E2,1.427E3,3.24E2,1.456E3,4.06E2,1.559E3,5.35E2,7.61E2,1.95E2,2.14E2,4.8E1,1.542E3,4.05E2,2.65E2,1.88E2,5.69E2,1.141E3,1.31E2,7.09E2,3.22E2,9.56E2,1.354E3,7.66E2,3.49E2,4.62E2,3.37E2,3.1E1,1.326E3,4.55E2,8.03E2,9.7E1],"tree_param":{"num_deleted":"0","num_feature":"3","num_nodes":"63","size_leaf_vector":"1"}},{"base_weights":[4.1453197E-4,-5.5542626E0,5.5207624E0,-6.900514E0,-4.1820874E0,3.1196918E0,7.1177697E0,-5.3817496E0,-7.7103624E0,-3.3822856E0,-5.715406E0,4.445041E0,2.2050366E0,6.0457487E0,8.926021E0,-7.1576886E0,-5.0057034E0,-9.317451E0,-7.212602E0,-3.9966223E0,-1.7669941E0,-6.1645927E0,-4.21003E0,2.227677E0,4.927141E0,-3.849979E-1,2.6636522E0,7.2006426E0,4.9436975E0,9.6917095E0,7.0258126E0,-6.394359E-1,-8.1573117E-1,-4.5243594E-1,-6.3934296E-1,-8.7170714E-1,-1.0677313E0,-6.646126E-1,-8.349833E-1,-3.5879216E-1,-5.4233336E-1,-6.1065316E-2,-2.4486446E-1,-5.6197166E-1,-7.1756107E-1,-3.6792293E-1,-5.396832E-1,3.3802113E-1,1.5884559E-1,5.803184E-1,4.3613195E-1,4.4890728E-2,-1.4676759E-1,3.115021E-1,1.3202742E-1,8.219102E-1,6.6507506E-1,5.41759E-1,3.9681086E-1,9.3120366E-1,1.2837992E0,6.6062427E-1,8.9923286E-1],"categories":[],"categories_nodes":[],"categories_segments":[],"categories_sizes":[],"default_left":[0,0,0,0,0,0,0,0,0,0,0,0,0,0,0,0,0,0,0,0,0,0,0,0,0,0,0,0,0,0,0,0,0,0,0,0,0,0,0,0,0,0,0,0,0,0,0,0,0,0,0,0,0,0,0,0,0,0,0,0,0,0,0],"id":11,"left_children":[1,3,5,7,9,11,13,15,17,19,21,23,25,27,29,31,33,35,37,39,41,43,45,47,49,51,53,55,57,59,61,-1,-1,-1,-1,-1,-1,-1,-1,-1,-1,-1,-1,-1,-1,-1,-1,-1,-1,-1,-1,-1,-1,-1,-1,-1,-1,-1,-1,-1,-1,-1,-1],"loss_changes":[6.133364E5,1.8388656E4,3.844575E4,6.1464688E3,6.0388438E3,4.8500547E3,1.1623469E4,1.1348828E3,2.5558125E3,3.2170312E3,1.118168E3,1.7378926E3,2.8209346E3,4.7817812E3,3.1910156E3,1.7980371E2,9.396367E2,5.3721094E2,1.5602031E3,1.3525703E3,7.055381E2,6.763672E2,2.2708691E2,2.1122754E2,6.4039453E2,3.238794E2,1.2189131E3,9.791719E2,8.7541406E2,1.7845938E3,4.744297E2,0E0,0E0,0E0,0E0,0E0,0E0,0E0,0E0,0E0,0E0,0E0,0E0,0E0,0E0,0E0,0E0,0E0,0E0,0E0,0E0,0E0,0E0,0E0,0E0,0E0,0E0,0E0,0E0,0E0,0E0,0E0,0E0],"parents":[2147483647,0,0,1,1,2,2,3,3,4,4,5,5,6,6,7,7,8,8,9,9,10,10,11,11,12,12,13,13,14,14,15,15,16,16,17,17,18,18,19,19,20,20,21,21,22,22,23,23,24,24,25,25,26,26,27,27,28,28,29,29,30,30],"right_children":[2,4,6,8,10,12,14,16,18,20,22,24,26,28,30,32,34,36,38,40,42,44,46,48,50,52,54,56,58,60,62,-1,-1,-1,-1,-1,-1,-1,-1,-1,-1,-1,-1,-1,-1,-1,-1,-1,-1,-1,-1,-1,-1,-1,-1,-1,-1,-1,-1,-1,-1,-1,-1],"split_conditions":[6.0199314E1,3.0137396E1,9.621771E1,5.322E3,9.206E3,6.291E3,1.1141712E2,1.6441185E1,1.8138414E1,4.120977E1,4.2824223E1,7.815355E1,7.728266E1,7.214E3,1.008E4,5.262217E-1,8.2216036E-1,1.07125E4,1.0615E4,8.855052E-1,3.8505E3,1.1841E4,6.938954E-1,3.1165E3,3.2195E3,1.04215E4,1.1603E4,3.3135E3,1.1499E4,1.3015129E2,1.26920975E2,-6.394359E-1,-8.1573117E-1,-4.5243594E-1,-6.3934296E-1,-8.7170714E-1,-1.0677313E0,-6.646126E-1,-8.349833E-1,-3.5879216E-1,-5.4233336E-1,-6.1065316E-2,-2.4486446E-1,-5.6197166E-1,-7.1756107E-1,-3.6792293E-1,-5.396832E-1,3.3802113E-1,1.5884559E-1,5.803184E-1,4.3613195E-1,4.4890728E-2,-1.4676759E-1,3.115021E-1,1.3202742E-1,8.219102E-1,6.6507506E-1,5.41759E-1,3.9681086E-1,9.3120366E-1,1.2837992E0,6.6062427E-1,8.9923286E-1],"split_indices":[1,1,1,0,0,0,1,1,1,1,1,1,1,0,0,2,2,0,0,2,0,0,2,0,0,0,0,0,0,1,1,0,0,0,0,0,0,0,0,0,0,0,0,0,0,0,0,0,0,0,0,0,0,0,0,0,0,0,0,0,0,0,0],"split_type":[0,0,0,0,0,0,0,0,0,0,0,0,0,0,0,0,0,0,0,0,0,0,0,0,0,0,0,0,0,0,0,0,0,0,0,0,0,0,0,0,0,0,0,0,0,0,0,0,0,0,0,0,0,0,0,0,0,0,0,0,0,0,0],"sum_hessian":[2E4,9.969E3,1.0031E4,5.03E3,4.939E3,4.008E3,6.023E3,1.752E3,3.278E3,3.248E3,1.691E3,1.635E3,2.373E3,3.784E3,2.239E3,3.03E2,1.449E3,7.71E2,2.507E3,2.352E3,8.96E2,1.3E3,3.91E2,2.93E2,1.342E3,3.57E2,2.016E3,1.845E3,1.939E3,1.593E3,6.46E2,1.76E2,1.27E2,1.079E3,3.7E2,5.4E2,2.31E2,1.678E3,8.29E2,1.831E3,5.21E2,3.33E2,5.63E2,8.49E2,4.51E2,2.73E2,1.18E2,1.03E2,1.9E2,5.23E2,8.19E2,2.02E2,1.55E2,1.508E3,5.08E2,6.42E2,1.203E3,1.302E3,6.37E2,1.425E3,1.68E2,5.36E2,1.1E2],"tree_param":{"num_deleted":"0","num_feature":"3","num_nodes":"63","size_leaf_vector":"1"}},{"base_weights":[3.072627E-4,-4.8517165E0,5.1246586E0,-5.767844E0,-2.7874434E0,3.9029024E0,7.478389E0,-5.0160284E0,-7.080205E0,-3.2732294E0,-3.977958E-1,2.8184562E0,4.960388E0,9.154741E0,6.7298503E0,-5.9785028E0,-4.2106347E0,-8.449629E0,-6.438374E0,-1.8603743E0,-4.049452E0,1.3250313E0,-1.1233441E0,3.5909188E0,1.512451E0,5.6883745E0,3.537629E0,8.39878E0,1.0723856E1,6.1548686E0,8.251809E0,-4.4742963E-1,-6.421553E-1,-2.77777E-1,-4.578755E-1,-1.0145285E0,-8.044133E-1,-6.085037E-1,-7.807214E-1,-9.013247E-2,-2.494715E-1,-3.5957453E-1,-5.46612E-1,3.3013758E-1,9.665217E-2,-4.7392335E-2,-2.1947522E-1,2.7694032E-1,4.2303386E-1,1.8793832E-1,2.2241613E-2,6.566949E-1,5.06508E-1,3.8616785E-1,2.6319295E-1,9.010276E-1,7.513725E-1,1.0311402E0,1.4229711E0,6.692737E-1,5.262005E-1,7.92166E-1,1.1991293E0],"categories":[],"categories_nodes":[],"categories_segments":[],"categories_sizes":[],"default_left":[0,0,0,0,0,0,0,0,0,0,0,0,0,0,0,0,0,0,0,0,0,0,0,0,0,0,0,0,0,0,0,0,0,0,0,0,0,0,0,0,0,0,0,0,0,0,0,0,0,0,0,0,0,0,0,0,0,0,0,0,0,0,0],"id":12,"left_children":[1,3,5,7,9,11,13,15,17,19,21,23,25,27,29,31,33,35,37,39,41,43,45,47,49,51,53,55,57,59,61,-1,-1,-1,-1,-1,-1,-1,-1,-1,-1,-1,-1,-1,-1,-1,-1,-1,-1,-1,-1,-1,-1,-1,-1,-1,-1,-1,-1,-1,-1,-1,-1],"loss_changes":[4.973192E5,1.94135E4,2.7945469E4,6.9845E3,3.6670078E3,7.332336E3,4.1081406E3,3.4840312E3,2.2211719E3,2.872373E3,6.702354E2,3.1875469E3,3.3377734E3,1.1234062E3,1.9628125E3,1.3441328E3,1.2890703E3,4.8426953E2,8.07125E2,5.653552E2,1.069166E3,1.09466736E2,2.6127444E2,1.0325684E3,5.571946E2,1.1402656E3,3.1267773E2,3.084375E2,3.290078E2,7.6871094E2,6.8033203E2,0E0,0E0,0E0,0E0,0E0,0E0,0E0,0E0,0E0,0E0,0E0,0E0,0E0,0E0,0E0,0E0,0E0,0E0,0E0,0E0,0E0,0E0,0E0,0E0,0E0,0E0,0E0,0E0,0E0,0E0,0E0,0E0],"parents":[2147483647,0,0,1,1,2,2,3,3,4,4,5,5,6,6,7,7,8,8,9,9,10,10,11,11,12,12,13,13,14,14,15,15,16,16,17,17,18,18,19,19,20,20,21,21,22,22,23,23,24,24,25,25,26,26,27,27,28,28,29,29,30,30],"right_children":[2,4,6,8,10,12,14,16,18,20,22,24,26,28,30,32,34,36,38,40,42,44,46,48,50,52,54,56,58,60,62,-1,-1,-1,-1,-1,-1,-1,-1,-1,-1,-1,-1,-1,-1,-1,-1,-1,-1,-1,-1,-1,-1,-1,-1,-1,-1,-1,-1,-1,-1,-1,-1],"split_conditions":[7.181722E1,3.6009026E1,1.064577E2,8.717E3,5.0626225E1,9.407728E1,5.0645E3,2.5428988E1,2.2487438E1,5.469E3,4.771E3,8.9125E3,9.5325E3,1.1947768E2,1.20044495E2,2.562E3,2.4155E3,1.2407119E1,1.0799781E0,2.819E3,7.842353E-1,1.581E3,1.04215E4,8.566279E1,1.26185E4,4.575E3,1.26185E4,3.2675E3,1.3610313E2,1.0274E4,1.3610313E2,-4.4742963E-1,-6.421553E-1,-2.77777E-1,-4.578755E-1,-1.0145285E0,-8.044133E-1,-6.085037E-1,-7.807214E-1,-9.013247E-2,-2.494715E-1,-3.5957453E-1,-5.46612E-1,3.3013758E-1,9.665217E-2,-4.7392335E-2,-2.1947522E-1,2.7694032E-1,4.2303386E-1,1.8793832E-1,2.2241613E-2,6.566949E-1,5.06508E-1,3.8616785E-1,2.6319295E-1,9.010276E-1,7.513725E-1,1.0311402E0,1.4229711E0,6.692737E-1,5.262005E-1,7.92166E-1,1.1991293E0],"split_indices":[1,1,1,0,1,1,0,1,1,0,0,0,0,1,1,0,0,1,2,0,2,0,0,1,0,0,0,0,1,0,1,0,0,0,0,0,0,0,0,0,0,0,0,0,0,0,0,0,0,0,0,0,0,0,0,0,0,0,0,0,0,0,0],"split_type":[0,0,0,0,0,0,0,0,0,0,0,0,0,0,0,0,0,0,0,0,0,0,0,0,0,0,0,0,0,0,0,0,0,0,0,0,0,0,0,0,0,0,0,0,0,0,0,0,0,0,0,0,0,0,0,0,0,0,0,0,0,0,0],"sum_hessian":[2E4,1.0273E4,9.727E3,7.114E3,3.159E3,6.405E3,3.322E3,4.526E3,2.588E3,2.625E3,5.34E2,3.164E3,3.241E3,1.022E3,2.3E3,2.059E3,2.467E3,8.22E2,1.766E3,9.32E2,1.693E3,1.58E2,3.76E2,1.987E3,1.177E3,2.142E3,1.099E3,6.94E2,3.28E2,1.673E3,6.27E2,4.71E2,1.588E3,5.06E2,1.961E3,1.54E2,6.68E2,1.408E3,3.58E2,3.72E2,5.6E2,1.285E3,4.08E2,2.3E1,1.35E2,2.35E2,1.41E2,8.72E2,1.115E3,9.16E2,2.61E2,8.85E2,1.257E3,8.07E2,2.92E2,4.05E2,2.89E2,2.97E2,3.1E1,1.04E3,6.33E2,5.79E2,4.8E1],"tree_param":{"num_deleted":"0","num_feature":"3","num_nodes":"63","size_leaf_vector":"1"}},{"base_weights":[4.7180583E-4,-4.36714E0,4.613223E0,-5.3280783E0,-2.7650244E0,3.3290546E0,6.4373326E0,-4.212278E0,-6.06777E0,-3.264093E0,-7.7806205E-1,4.5708013E0,2.6627114E0,7.5676265E0,5.5054827E0,-5.148433E0,-3.5464911E0,-7.517912E0,-5.6311727E0,-2.6290963E0,-4.6241527E0,-1.6821001E-1,-2.5187926E0,3.616053E0,5.4599338E0,1.4968599E0,3.397871E0,6.715508E0,8.744763E0,4.5715604E0,6.4488764E0,-4.6594802E-1,-6.3157433E-1,-2.64926E-1,-3.9516774E-1,-7.054498E-1,-8.940005E-1,-5.256896E-1,-6.958965E-1,-2.2520785E-1,-4.0984327E-1,-4.0510106E-1,-5.494159E-1,2.4298275E-2,-1.7799132E-1,-3.508833E-1,-1.6337688E-1,4.4727692E-1,3.09116E-1,6.546048E-1,5.1870584E-1,1.8822204E-1,-5.1117316E-3,3.937231E-1,2.5603577E-1,7.62232E-1,6.2817425E-1,8.487703E-1,1.2821735E0,4.7451353E-1,2.8616998E-1,7.0881355E-1,5.420503E-1],"categories":[],"categories_nodes":[],"categories_segments":[],"categories_sizes":[],"default_left":[0,0,0,0,0,0,0,0,0,0,0,0,0,0,0,0,0,0,0,0,0,0,0,0,0,0,0,0,0,0,0,0,0,0,0,0,0,0,0,0,0,0,0,0,0,0,0,0,0,0,0,0,0,0,0,0,0,0,0,0,0,0,0],"id":13,"left_children":[1,3,5,7,9,11,13,15,17,19,21,23,25,27,29,31,33,35,37,39,41,43,45,47,49,51,53,55,57,59,61,-1,-1,-1,-1,-1,-1,-1,-1,-1,-1,-1,-1,-1,-1,-1,-1,-1,-1,-1,-1,-1,-1,-1,-1,-1,-1,-1,-1,-1,-1,-1,-1],"loss_changes":[4.0297444E5,1.5802453E4,2.2766031E4,5.274E3,3.8192031E3,4.713285E3,4.1903594E3,1.579207E3,2.4009062E3,2.647836E3,8.223071E2,1.6721094E3,3.18242E3,1.7598281E3,1.9141328E3,5.77291E2,5.352129E2,5.2345703E2,1.4393906E3,1.155207E3,4.6591016E2,3.8149686E2,1.703855E2,4.1966895E2,2.7131055E2,8.590979E2,1.01984375E3,3.6748438E2,6.855742E2,3.1645117E2,6.814258E2,0E0,0E0,0E0,0E0,0E0,0E0,0E0,0E0,0E0,0E0,0E0,0E0,0E0,0E0,0E0,0E0,0E0,0E0,0E0,0E0,0E0,0E0,0E0,0E0,0E0,0E0,0E0,0E0,0E0,0E0,0E0,0E0],"parents":[2147483647,0,0,1,1,2,2,3,3,4,4,5,5,6,6,7,7,8,8,9,9,10,10,11,11,12,12,13,13,14,14,15,15,16,16,17,17,18,18,19,19,20,20,21,21,22,22,23,23,24,24,25,25,26,26,27,27,28,28,29,29,30,30],"right_children":[2,4,6,8,10,12,14,16,18,20,22,24,26,28,30,32,34,36,38,40,42,44,46,48,50,52,54,56,58,60,62,-1,-1,-1,-1,-1,-1,-1,-1,-1,-1,-1,-1,-1,-1,-1,-1,-1,-1,-1,-1,-1,-1,-1,-1,-1,-1,-1,-1,-1,-1,-1,-1],"split_conditions":[7.181722E1,3.3883366E1,1.0364962E2,5.898E3,4.7185337E1,5.417E3,6.9565E3,2.3592377E1,1.9759369E1,9.394E3,1.04215E4,9.212225E1,8.992612E1,1.1482036E2,1.1256802E2,7.4335325E-1,2.366E3,1.0799781E0,8.492266E-1,9.75166E-1,1.1841E4,6.938954E-1,5.5106064E1,2.7125E3,2.0105E3,1.1988E4,1.037E4,2.7695E3,1.3610313E2,1.31975E4,1.08595E4,-4.6594802E-1,-6.3157433E-1,-2.64926E-1,-3.9516774E-1,-7.054498E-1,-8.940005E-1,-5.256896E-1,-6.958965E-1,-2.2520785E-1,-4.0984327E-1,-4.0510106E-1,-5.494159E-1,2.4298275E-2,-1.7799132E-1,-3.508833E-1,-1.6337688E-1,4.4727692E-1,3.09116E-1,6.546048E-1,5.1870584E-1,1.8822204E-1,-5.1117316E-3,3.937231E-1,2.5603577E-1,7.62232E-1,6.2817425E-1,8.487703E-1,1.2821735E0,4.7451353E-1,2.8616998E-1,7.0881355E-1,5.420503E-1],"split_indices":[1,1,1,0,1,0,0,1,1,0,0,1,1,1,1,2,0,2,2,2,0,2,1,0,0,0,0,0,1,0,0,0,0,0,0,0,0,0,0,0,0,0,0,0,0,0,0,0,0,0,0,0,0,0,0,0,0,0,0,0,0,0,0],"split_type":[0,0,0,0,0,0,0,0,0,0,0,0,0,0,0,0,0,0,0,0,0,0,0,0,0,0,0,0,0,0,0,0,0,0,0,0,0,0,0,0,0,0,0,0,0,0,0,0,0,0,0,0,0,0,0,0,0,0,0,0,0,0,0],"sum_hessian":[2E4,1.0273E4,9.727E3,6.42E3,3.853E3,5.71E3,4.017E3,2.562E3,3.858E3,3.079E3,7.74E2,1.992E3,3.718E3,1.812E3,2.205E3,1.062E3,1.5E3,8.89E2,2.969E3,2.101E3,9.78E2,5.74E2,2E2,9.63E2,1.029E3,1.439E3,2.279E3,1.055E3,7.57E2,1.111E3,1.094E3,7.52E2,3.1E2,4.69E2,1.031E3,6.75E2,2.14E2,2.32E3,6.49E2,1.674E3,4.27E2,5.93E2,3.85E2,4.58E2,1.16E2,9.3E1,1.07E2,3.63E2,6E2,2.02E2,8.27E2,1.152E3,2.87E2,1.384E3,8.95E2,3.36E2,7.19E2,7.15E2,4.2E1,1.007E3,1.04E2,6.71E2,4.23E2],"tree_param":{"num_deleted":"0","num_feature":"3","num_nodes":"63","size_leaf_vector":"1"}},{"base_weights":[4.970325E-4,-4.0533705E0,4.0293107E0,-5.4380765E0,-3.2828088E0,2.4105594E0,5.329816E0,-4.884966E0,-6.888888E0,-2.002864E0,-3.8133926E0,1.0735189E0,2.9625313E0,4.460231E0,6.477839E0,-6.252881E0,-4.535473E0,-6.527182E0,-8.193719E0,-2.5358555E0,-6.440285E-1,-4.326974E0,-2.8068583E0,2.517232E0,4.506811E-1,3.5920625E0,1.936105E0,5.136094E0,3.4272788E0,8.133076E0,5.9261727E0,-5.502841E-1,-7.121118E-1,-4.1453528E-1,-5.7946163E-1,-6.2047076E-1,-7.762838E-1,-9.6488744E-1,-7.8558666E-1,-2.2337823E-1,-3.6469018E-1,1.5914602E-2,-1.1782985E-1,-3.9499637E-1,-5.4592806E-1,-2.384206E-1,-4.0741062E-1,3.7973398E-1,2.1146916E-1,8.2296334E-2,-1.15080096E-1,4.6401206E-1,3.2433543E-1,2.4529457E-1,1.447727E-1,5.881641E-1,4.662822E-1,3.6753893E-1,2.661556E-1,7.7563345E-1,1.0432652E0,5.5781734E-1,7.7263445E-1],"categories":[],"categories_nodes":[],"categories_segments":[],"categories_sizes":[],"default_left":[0,0,0,0,0,0,0,0,0,0,0,0,0,0,0,0,0,0,0,0,0,0,0,0,0,0,0,0,0,0,0,0,0,0,0,0,0,0,0,0,0,0,0,0,0,0,0,0,0,0,0,0,0,0,0,0,0,0,0,0,0,0,0],"id":14,"left_children":[1,3,5,7,9,11,13,15,17,19,21,23,25,27,29,31,33,35,37,39,41,43,45,47,49,51,53,55,57,59,61,-1,-1,-1,-1,-1,-1,-1,-1,-1,-1,-1,-1,-1,-1,-1,-1,-1,-1,-1,-1,-1,-1,-1,-1,-1,-1,-1,-1,-1,-1,-1,-1],"loss_changes":[3.2667822E5,1.0620141E4,2.1106469E4,2.8255156E3,4.3441484E3,3.296455E3,5.523672E3,1.2065117E3,4.0951953E2,1.3599526E3,2.3290703E3,1.1750178E3,2.0375195E3,2.1940898E3,2.1387578E3,3.0139844E2,9.883789E2,2.5984766E2,2.6951172E1,4.449375E2,2.2804602E2,1.2578281E3,8.1136914E2,1.949961E2,5.4647314E2,7.012637E2,3.0060742E2,6.475664E2,2.2883789E2,4.3542188E2,1.0845312E3,0E0,0E0,0E0,0E0,0E0,0E0,0E0,0E0,0E0,0E0,0E0,0E0,0E0,0E0,0E0,0E0,0E0,0E0,0E0,0E0,0E0,0E0,0E0,0E0,0E0,0E0,0E0,0E0,0E0,0E0,0E0,0E0],"parents":[2147483647,0,0,1,1,2,2,3,3,4,4,5,5,6,6,7,7,8,8,9,9,10,10,11,11,12,12,13,13,14,14,15,15,16,16,17,17,18,18,19,19,20,20,21,21,22,22,23,23,24,24,25,25,26,26,27,27,28,28,29,29,30,30],"right_children":[2,4,6,8,10,12,14,16,18,20,22,24,26,28,30,32,34,36,38,40,42,44,46,48,50,52,54,56,58,60,62,-1,-1,-1,-1,-1,-1,-1,-1,-1,-1,-1,-1,-1,-1,-1,-1,-1,-1,-1,-1,-1,-1,-1,-1,-1,-1,-1,-1,-1,-1,-1,-1],"split_conditions":[6.0199314E1,2.6184908E1,9.7998474E1,9.9305E3,4.719E3,8.326097E1,1.10617485E2,1.5307438E1,1.0799781E0,3.939934E1,3.8218494E1,4.6745E3,8.9125E3,8.816E3,4.0395E3,5.262217E-1,9.072682E-1,1.26185E4,1.2407119E1,9.072682E-1,2.366E3,7.575798E-1,1.1198E4,2.0105E3,1.20855E4,3.2195E3,1.1051E4,3.989E3,1.22775E4,1.2843297E2,1.26920975E2,-5.502841E-1,-7.121118E-1,-4.1453528E-1,-5.7946163E-1,-6.2047076E-1,-7.762838E-1,-9.6488744E-1,-7.8558666E-1,-2.2337823E-1,-3.6469018E-1,1.5914602E-2,-1.1782985E-1,-3.9499637E-1,-5.4592806E-1,-2.384206E-1,-4.0741062E-1,3.7973398E-1,2.1146916E-1,8.2296334E-2,-1.15080096E-1,4.6401206E-1,3.2433543E-1,2.4529457E-1,1.447727E-1,5.881641E-1,4.662822E-1,3.6753893E-1,2.661556E-1,7.7563345E-1,1.0432652E0,5.5781734E-1,7.7263445E-1],"split_indices":[1,1,1,0,0,1,1,1,2,1,1,0,0,0,0,2,2,0,1,2,0,2,0,0,0,0,0,0,0,1,1,0,0,0,0,0,0,0,0,0,0,0,0,0,0,0,0,0,0,0,0,0,0,0,0,0,0,0,0,0,0,0,0],"split_type":[0,0,0,0,0,0,0,0,0,0,0,0,0,0,0,0,0,0,0,0,0,0,0,0,0,0,0,0,0,0,0,0,0,0,0,0,0,0,0,0,0,0,0,0,0,0,0,0,0,0,0,0,0,0,0,0,0,0,0,0,0,0,0],"sum_hessian":[2E4,9.969E3,1.0031E4,3.562E3,6.407E3,4.47E3,5.561E3,2.582E3,9.8E2,1.879E3,4.528E3,1.307E3,3.163E3,3.167E3,2.394E3,5.22E2,2.06E3,7.72E2,2.08E2,1.349E3,5.3E2,2.996E3,1.532E3,3.93E2,9.14E2,1.959E3,1.204E3,1.912E3,1.255E3,5.95E2,1.799E3,2.84E2,2.38E2,1.576E3,4.84E2,6.17E2,1.55E2,3.4E1,1.74E2,1.063E3,2.86E2,2.12E2,3.18E2,2.251E3,7.45E2,1.151E3,3.81E2,9.2E1,3.01E2,7.42E2,1.72E2,4.86E2,1.473E3,5.83E2,6.21E2,7.38E2,1.174E3,9.45E2,3.1E2,5.15E2,8E1,1.511E3,2.88E2],"tree_param":{"num_deleted":"0","num_feature":"3","num_nodes":"63","size_leaf_vector":"1"}},{"base_weights":[3.919966E-4,-3.512285E0,3.7738879E0,-4.2071505E0,-1.9322554E0,2.8442903E0,5.4208474E0,-3.6897233E0,-5.4002476E0,-2.3180242E0,-6.8646185E-2,2.1195004E0,3.641973E0,6.2606664E0,4.558834E0,-4.9366703E0,-3.320092E0,-6.196851E0,-4.731411E0,-8.138918E-1,-2.7753663E0,1.3698338E0,-5.948353E-1,3.302265E0,1.6273501E0,4.193283E0,2.576397E0,5.7204914E0,7.5651155E0,4.124061E0,5.894741E0,-3.3672684E-1,-5.30799E-1,-3.0354464E-1,-4.5283246E-1,-7.992255E-1,-5.9676844E-1,-4.288703E-1,-5.613799E-1,-5.237347E-2,-2.0793715E-1,-2.4163328E-1,-4.0334114E-1,1.5282327E-1,-9.372139E-2,-7.5623454E-3,-1.4748795E-1,2.8603506E-1,3.847356E-1,1.9197686E-1,6.554366E-2,4.774846E-1,3.7242368E-1,2.8410953E-1,1.8169217E-1,6.606916E-1,5.257989E-1,7.2655356E-1,1.0663662E0,4.355238E-1,3.1726158E-1,6.590761E-1,4.4856963E-1],"categories":[],"categories_nodes":[],"categories_segments":[],"categories_sizes":[],"default_left":[0,0,0,0,0,0,0,0,0,0,0,0,0,0,0,0,0,0,0,0,0,0,0,0,0,0,0,0,0,0,0,0,0,0,0,0,0,0,0,0,0,0,0,0,0,0,0,0,0,0,0,0,0,0,0,0,0,0,0,0,0,0,0],"id":15,"left_children":[1,3,5,7,9,11,13,15,17,19,21,23,25,27,29,31,33,35,37,39,41,43,45,47,49,51,53,55,57,59,61,-1,-1,-1,-1,-1,-1,-1,-1,-1,-1,-1,-1,-1,-1,-1,-1,-1,-1,-1,-1,-1,-1,-1,-1,-1,-1,-1,-1,-1,-1,-1,-1],"loss_changes":[2.6512794E5,1.1365094E4,1.4748109E4,4.4212266E3,2.2759473E3,3.5571758E3,2.4893047E3,2.2978438E3,1.1289805E3,1.8021113E3,4.1257523E2,1.8765479E3,1.7128125E3,1.1961719E3,9.746953E2,6.49959E2,1.3192773E3,3.5922266E2,4.3922266E2,2.2399713E2,8.98583E2,5.4785614E1,1.8220328E2,2.1759375E2,6.4815137E2,5.0922656E2,1.9647217E2,4.7690625E2,3.9779297E2,2.723379E2,3.8233984E2,0E0,0E0,0E0,0E0,0E0,0E0,0E0,0E0,0E0,0E0,0E0,0E0,0E0,0E0,0E0,0E0,0E0,0E0,0E0,0E0,0E0,0E0,0E0,0E0,0E0,0E0,0E0,0E0,0E0,0E0,0E0,0E0],"parents":[2147483647,0,0,1,1,2,2,3,3,4,4,5,5,6,6,7,7,8,8,9,9,10,10,11,11,12,12,13,13,14,14,15,15,16,16,17,17,18,18,19,19,20,20,21,21,22,22,23,23,24,24,25,25,26,26,27,27,28,28,29,29,30,30],"right_children":[2,4,6,8,10,12,14,16,18,20,22,24,26,28,30,32,34,36,38,40,42,44,46,48,50,52,54,56,58,60,62,-1,-1,-1,-1,-1,-1,-1,-1,-1,-1,-1,-1,-1,-1,-1,-1,-1,-1,-1,-1,-1,-1,-1,-1,-1,-1,-1,-1,-1,-1,-1,-1],"split_conditions":[7.36818E1,3.6228165E1,1.0580038E2,9.444E3,5.2565765E1,9.466727E1,7.599E3,2.0364311E1,2.5428988E1,3.803E3,4.4835E3,4.6225E3,9.5325E3,1.1947768E2,1.2079437E2,2.562E3,1.4638424E0,1.13698845E1,1.1988E4,1.4153957E0,1.1198E4,7.842353E-1,1.04215E4,8.803117E1,1.1499E4,4.771E3,1.26185E4,3.2675E3,1.3610313E2,1.22775E4,1.1448E4,-3.3672684E-1,-5.30799E-1,-3.0354464E-1,-4.5283246E-1,-7.992255E-1,-5.9676844E-1,-4.288703E-1,-5.613799E-1,-5.237347E-2,-2.0793715E-1,-2.4163328E-1,-4.0334114E-1,1.5282327E-1,-9.372139E-2,-7.5623454E-3,-1.4748795E-1,2.8603506E-1,3.847356E-1,1.9197686E-1,6.554366E-2,4.774846E-1,3.7242368E-1,2.8410953E-1,1.8169217E-1,6.606916E-1,5.257989E-1,7.2655356E-1,1.0663662E0,4.355238E-1,3.1726158E-1,6.590761E-1,4.4856963E-1],"split_indices":[1,1,1,0,1,1,0,1,1,0,0,0,0,1,1,0,2,1,0,2,0,2,0,1,0,0,0,0,1,0,0,0,0,0,0,0,0,0,0,0,0,0,0,0,0,0,0,0,0,0,0,0,0,0,0,0,0,0,0,0,0,0,0],"split_type":[0,0,0,0,0,0,0,0,0,0,0,0,0,0,0,0,0,0,0,0,0,0,0,0,0,0,0,0,0,0,0,0,0,0,0,0,0,0,0,0,0,0,0,0,0,0,0,0,0,0,0,0,0,0,0,0,0,0,0,0,0,0,0],"sum_hessian":[2E4,1.0358E4,9.642E3,7.193E3,3.165E3,6.165E3,3.477E3,5.02E3,2.173E3,2.622E3,5.43E2,3.232E3,2.933E3,1.758E3,1.719E3,1.145E3,3.875E3,9.88E2,1.185E3,6.12E2,2.01E3,1.45E2,3.98E2,9.48E2,2.284E3,1.931E3,1.002E3,1.247E3,5.11E2,1.3E3,4.19E2,2.21E2,9.24E2,3.139E3,7.36E2,1.08E2,8.8E2,7.93E2,3.92E2,4.99E2,1.13E2,1.566E3,4.44E2,1.36E2,9E0,2.51E2,1.47E2,5.27E2,4.21E2,1.755E3,5.29E2,8.58E2,1.073E3,7.41E2,2.61E2,4.23E2,8.24E2,4.69E2,4.2E1,1.043E3,2.57E2,2.78E2,1.41E2],"tree_param":{"num_deleted":"0","num_feature":"3","num_nodes":"63","size_leaf_vector":"1"}},{"base_weights":[4.5585356E-4,-3.161541E0,3.3972332E0,-3.7451878E0,-1.6284127E0,2.6422195E0,5.057737E0,-3.109326E0,-4.5495453E0,-2.193323E0,-5.862587E-1,1.9396036E0,3.37521E0,5.739803E0,4.1785874E0,-3.8129768E0,-2.517266E0,-5.269321E0,-3.9256368E0,-1.6523477E0,-3.2234228E0,1.4726977E-2,-1.6741174E0,2.7919707E0,1.381228E0,3.8419945E0,2.3254204E0,5.2877173E0,6.8922434E0,3.9726684E0,6.65107E0,-2.717742E-1,-4.1900077E-1,-1.571436E-1,-2.7993113E-1,-4.8156148E-1,-6.100317E-1,-3.4752378E-1,-4.6385723E-1,-4.556522E-2,-1.9898175E-1,-2.6670673E-1,-3.964969E-1,2.7644265E-2,-1.7733152E-1,-2.4002354E-1,-1.0617125E-1,3.6061716E-1,2.468297E-1,6.4492345E-2,1.7152166E-1,4.4059667E-1,3.4328178E-1,2.6301154E-1,1.894159E-1,6.270108E-1,4.9333355E-1,6.5723544E-1,9.725723E-1,4.3529984E-1,3.3514264E-1,7.061782E-1,3.623713E-1],"categories":[],"categories_nodes":[],"categories_segments":[],"categories_sizes":[],"default_left":[0,0,0,0,0,0,0,0,0,0,0,0,0,0,0,0,0,0,0,0,0,0,0,0,0,0,0,0,0,0,0,0,0,0,0,0,0,0,0,0,0,0,0,0,0,0,0,0,0,0,0,0,0,0,0,0,0,0,0,0,0,0,0],"id":16,"left_children":[1,3,5,7,9,11,13,15,17,19,21,23,25,27,29,31,33,35,37,39,41,43,45,47,49,51,53,55,57,59,61,-1,-1,-1,-1,-1,-1,-1,-1,-1,-1,-1,-1,-1,-1,-1,-1,-1,-1,-1,-1,-1,-1,-1,-1,-1,-1,-1,-1,-1,-1,-1,-1],"loss_changes":[2.1483347E5,9.263195E3,1.2076094E4,3.8228281E3,1.6812861E3,3.4084883E3,1.7827188E3,1.7372188E3,1.46575E3,1.0272744E3,6.5773486E2,1.6086328E3,1.5807109E3,8.461328E2,6.4563086E2,7.7897266E2,6.038291E2,5.489844E2,5.544844E2,4.9057715E2,2.5222803E2,3.041954E2,1.5664655E2,3.4423633E2,5.027788E2,5.0271094E2,1.26552734E2,3.9414844E2,3.6571094E2,2.739043E2,9.874707E1,0E0,0E0,0E0,0E0,0E0,0E0,0E0,0E0,0E0,0E0,0E0,0E0,0E0,0E0,0E0,0E0,0E0,0E0,0E0,0E0,0E0,0E0,0E0,0E0,0E0,0E0,0E0,0E0,0E0,0E0,0E0,0E0],"parents":[2147483647,0,0,1,1,2,2,3,3,4,4,5,5,6,6,7,7,8,8,9,9,10,10,11,11,12,12,13,13,14,14,15,15,16,16,17,17,18,18,19,19,20,20,21,21,22,22,23,23,24,24,25,25,26,26,27,27,28,28,29,29,30,30],"right_children":[2,4,6,8,10,12,14,16,18,20,22,24,26,28,30,32,34,36,38,40,42,44,46,48,50,52,54,56,58,60,62,-1,-1,-1,-1,-1,-1,-1,-1,-1,-1,-1,-1,-1,-1,-1,-1,-1,-1,-1,-1,-1,-1,-1,-1,-1,-1,-1,-1,-1,-1,-1,-1],"split_conditions":[7.36818E1,3.7153038E1,1.0774864E2,7.932E3,4.5805782E1,9.526908E1,8.276E3,2.5815516E1,2.601137E1,9.206E3,9.206E3,5.898E3,9.729E3,1.2079437E2,1.3015129E2,2.562E3,2.4155E3,1.14E4,5.9558165E-1,2.819E3,5.661629E-1,8.855052E-1,5.2565765E1,2.6125E3,8.4284096E1,4.771E3,1.20855E4,2.7695E3,1.3610313E2,1.1448E4,1.28165E4,-2.717742E-1,-4.1900077E-1,-1.571436E-1,-2.7993113E-1,-4.8156148E-1,-6.100317E-1,-3.4752378E-1,-4.6385723E-1,-4.556522E-2,-1.9898175E-1,-2.6670673E-1,-3.964969E-1,2.7644265E-2,-1.7733152E-1,-2.4002354E-1,-1.0617125E-1,3.6061716E-1,2.468297E-1,6.4492345E-2,1.7152166E-1,4.4059667E-1,3.4328178E-1,2.6301154E-1,1.894159E-1,6.270108E-1,4.9333355E-1,6.5723544E-1,9.725723E-1,4.3529984E-1,3.3514264E-1,7.061782E-1,3.623713E-1],"split_indices":[1,1,1,0,1,1,0,1,1,0,0,0,0,1,1,0,0,0,2,0,2,2,1,0,1,0,0,0,1,0,0,0,0,0,0,0,0,0,0,0,0,0,0,0,0,0,0,0,0,0,0,0,0,0,0,0,0,0,0,0,0,0,0],"split_type":[0,0,0,0,0,0,0,0,0,0,0,0,0,0,0,0,0,0,0,0,0,0,0,0,0,0,0,0,0,0,0,0,0,0,0,0,0,0,0,0,0,0,0,0,0,0,0,0,0,0,0,0,0,0,0,0,0,0,0,0,0,0,0],"sum_hessian":[2E4,1.0358E4,9.642E3,7.501E3,2.857E3,6.63E3,3.012E3,4.192E3,3.309E3,1.852E3,1.005E3,3.387E3,3.243E3,1.693E3,1.319E3,1.913E3,2.279E3,1.533E3,1.776E3,1.216E3,6.36E2,6.48E2,3.57E2,1.339E3,2.048E3,2.243E3,1E3,1.22E3,4.73E2,1.22E3,9.9E1,4.92E2,1.421E3,5.25E2,1.754E3,9.96E2,5.37E2,1.092E3,6.84E2,2.68E2,9.48E2,3.66E2,2.7E2,5.66E2,8.2E1,1.62E2,1.95E2,3.78E2,9.61E2,6.4E2,1.408E3,9.39E2,1.304E3,5.83E2,4.17E2,3.19E2,9.01E2,4.28E2,4.5E1,7.53E2,4.67E2,8.6E1,1.3E1],"tree_param":{"num_deleted":"0","num_feature":"3","num_nodes":"63","size_leaf_vector":"1"}},{"base_weights":[5.216702E-4,-2.8458152E0,3.058201E0,-3.6193602E0,-1.8893706E0,2.1452868E0,4.1788096E0,-2.5851116E0,-4.0488906E0,-2.342884E0,-7.4294186E-1,2.8979325E0,1.6579318E0,5.3709245E0,3.7533724E0,-2.2241158E0,-3.501187E0,-5.628854E0,-3.8309903E0,-1.418909E0,-2.8570788E0,-2.92299E-1,-2.01411E0,2.048314E0,3.3436027E0,8.920944E-1,2.1293302E0,4.8544383E0,6.586206E0,3.168398E0,4.4815354E0,-3.9809984E-1,-2.0657027E-1,-4.3043026E-1,-2.9992822E-1,-4.7788104E-1,-6.187891E-1,-3.5547864E-1,-4.914373E-1,-1.1142719E-1,-2.4667029E-1,-2.5570425E-1,-4.1224495E-1,3.6349369E-3,-1.577199E-1,-2.5982744E-1,-1.2229313E-1,3.517011E-1,1.8332592E-1,4.0902135E-1,3.113591E-1,1.3143598E-1,1.630458E-2,2.3254624E-1,1.0070751E-1,5.361319E-1,4.5042926E-1,7.2597307E-1,5.648944E-1,3.6685628E-1,2.7115694E-1,4.3403503E-1,7.972615E-1],"categories":[],"categories_nodes":[],"categories_segments":[],"categories_sizes":[],"default_left":[0,0,0,0,0,0,0,0,0,0,0,0,0,0,0,0,0,0,0,0,0,0,0,0,0,0,0,0,0,0,0,0,0,0,0,0,0,0,0,0,0,0,0,0,0,0,0,0,0,0,0,0,0,0,0,0,0,0,0,0,0,0,0],"id":17,"left_children":[1,3,5,7,9,11,13,15,17,19,21,23,25,27,29,31,33,35,37,39,41,43,45,47,49,51,53,55,57,59,61,-1,-1,-1,-1,-1,-1,-1,-1,-1,-1,-1,-1,-1,-1,-1,-1,-1,-1,-1,-1,-1,-1,-1,-1,-1,-1,-1,-1,-1,-1,-1,-1],"loss_changes":[1.7408112E5,7.657289E3,9.856016E3,2.5332578E3,2.4075703E3,1.9451348E3,2.174875E3,5.487793E2,1.3706797E3,1.573291E3,7.5269965E2,7.837715E2,1.1638174E3,6.810703E2,1.3458789E3,3.2853564E2,1.7815381E2,2.0233008E2,1.0469102E3,3.767766E2,7.988867E2,4.105138E2,1.5581177E2,2.21281E2,2.221914E2,3.7905927E2,4.3743848E2,1.1801367E2,1.710957E2,3.9539453E2,6.652969E2,0E0,0E0,0E0,0E0,0E0,0E0,0E0,0E0,0E0,0E0,0E0,0E0,0E0,0E0,0E0,0E0,0E0,0E0,0E0,0E0,0E0,0E0,0E0,0E0,0E0,0E0,0E0,0E0,0E0,0E0,0E0,0E0],"parents":[2147483647,0,0,1,1,2,2,3,3,4,4,5,5,6,6,7,7,8,8,9,9,10,10,11,11,12,12,13,13,14,14,15,15,16,16,17,17,18,18,19,19,20,20,21,21,22,22,23,23,24,24,25,25,26,26,27,27,28,28,29,29,30,30],"right_children":[2,4,6,8,10,12,14,16,18,20,22,24,26,28,30,32,34,36,38,40,42,44,46,48,50,52,54,56,58,60,62,-1,-1,-1,-1,-1,-1,-1,-1,-1,-1,-1,-1,-1,-1,-1,-1,-1,-1,-1,-1,-1,-1,-1,-1,-1,-1,-1,-1,-1,-1,-1,-1],"split_conditions":[7.36818E1,3.1959158E1,1.0237359E2,4.386E3,4.364438E1,5.898E3,4.4835E3,7.3729587E-1,1.5307438E1,5.469E3,1.04215E4,8.803117E1,8.949083E1,1.1755137E2,1.1302701E2,1.3386239E1,2.169482E1,4.2720997E-1,1.0799781E0,1.0799781E0,1.4638424E0,6.938954E-1,5.2565765E1,1.632E3,2.269E3,1.07125E4,1.26185E4,2.216E3,2.819E3,8.863E3,1.3610313E2,-3.9809984E-1,-2.0657027E-1,-4.3043026E-1,-2.9992822E-1,-4.7788104E-1,-6.187891E-1,-3.5547864E-1,-4.914373E-1,-1.1142719E-1,-2.4667029E-1,-2.5570425E-1,-4.1224495E-1,3.6349369E-3,-1.577199E-1,-2.5982744E-1,-1.2229313E-1,3.517011E-1,1.8332592E-1,4.0902135E-1,3.113591E-1,1.3143598E-1,1.630458E-2,2.3254624E-1,1.0070751E-1,5.361319E-1,4.5042926E-1,7.2597307E-1,5.648944E-1,3.6685628E-1,2.7115694E-1,4.3403503E-1,7.972615E-1],"split_indices":[1,1,1,0,1,0,0,2,1,0,0,1,1,1,1,1,1,2,2,2,2,2,1,0,0,0,0,0,0,0,1,0,0,0,0,0,0,0,0,0,0,0,0,0,0,0,0,0,0,0,0,0,0,0,0,0,0,0,0,0,0,0,0],"split_type":[0,0,0,0,0,0,0,0,0,0,0,0,0,0,0,0,0,0,0,0,0,0,0,0,0,0,0,0,0,0,0,0,0,0,0,0,0,0,0,0,0,0,0,0,0,0,0,0,0,0,0,0,0,0,0,0,0,0,0,0,0,0,0],"sum_hessian":[2E4,1.0358E4,9.642E3,5.725E3,4.633E3,5.315E3,4.327E3,1.682E3,4.043E3,3.319E3,1.314E3,2.087E3,3.228E3,1.135E3,3.192E3,1.209E3,4.73E2,4.87E2,3.556E3,1.188E3,2.131E3,9.71E2,3.43E2,7.2E2,1.367E3,1.231E3,1.997E3,8E2,3.35E2,1.773E3,1.419E3,9.8E1,1.111E3,1.79E2,2.94E2,1.97E2,2.9E2,2.837E3,7.19E2,9.22E2,2.66E2,1.725E3,4.06E2,7.74E2,1.97E2,1.96E2,1.47E2,9E1,6.3E2,3.18E2,1.049E3,7.79E2,4.52E2,1.699E3,2.98E2,3.21E2,4.79E2,1.91E2,1.44E2,8.43E2,9.3E2,1.366E3,5.3E1],"tree_param":{"num_deleted":"0","num_feature":"3","num_nodes":"63","size_leaf_vector":"1"}},{"base_weights":[5.218958E-4,-2.6855655E0,2.629741E0,-3.568555E0,-2.1357896E0,1.3790492E0,3.3996077E0,-3.0356224E0,-4.3393307E0,-1.7583328E0,-3.13684E0,2.293692E0,9.890628E-1,2.79851E0,4.229458E0,-4.664569E0,-2.8403244E0,-4.0387287E0,-5.299914E0,-2.0225484E0,-8.518637E-1,-2.8563712E0,-4.1932855E0,1.4754477E0,2.601584E0,-2.641093E-1,1.2962722E0,3.2142186E0,2.0250266E0,4.562987E0,2.9018357E0,-3.937939E-1,-5.388594E-1,-1.9051057E-1,-3.1481183E-1,-3.8259628E-1,-5.396145E-1,-4.822549E-1,-6.0717624E-1,-1.449791E-1,-2.401187E-1,-4.6678953E-2,-1.8836187E-1,-3.19617E-1,-2.272884E-1,-3.6574432E-1,-4.9182412E-1,2.274667E-1,1.1385461E-1,3.4512493E-1,2.3561315E-1,4.5511957E-2,-5.9928734E-2,1.5736856E-1,5.7395376E-2,4.1937444E-1,3.0392706E-1,2.5000897E-1,1.7785911E-1,4.3987218E-1,7.11924E-1,2.7801836E-1,4.64974E-1],"categories":[],"categories_nodes":[],"categories_segments":[],"categories_sizes":[],"default_left":[0,0,0,0,0,0,0,0,0,0,0,0,0,0,0,0,0,0,0,0,0,0,0,0,0,0,0,0,0,0,0,0,0,0,0,0,0,0,0,0,0,0,0,0,0,0,0,0,0,0,0,0,0,0,0,0,0,0,0,0,0,0,0],"id":18,"left_children":[1,3,5,7,9,11,13,15,17,19,21,23,25,27,29,31,33,35,37,39,41,43,45,47,49,51,53,55,57,59,61,-1,-1,-1,-1,-1,-1,-1,-1,-1,-1,-1,-1,-1,-1,-1,-1,-1,-1,-1,-1,-1,-1,-1,-1,-1,-1,-1,-1,-1,-1,-1,-1],"loss_changes":[1.4126038E5,4.795383E3,9.727961E3,1.5457031E3,2.2993887E3,1.3720898E3,3.108789E3,7.0158984E2,4.25875E2,1.0597568E3,4.8254883E2,2.8613428E2,1.0409602E3,1.1610156E3,1.1495547E3,1.0451709E2,5.7230176E2,3.213086E2,1.05572266E2,7.405928E2,3.9721753E2,2.548457E2,1.1719629E2,8.2765076E1,1.6600928E2,1.2876291E2,4.3412354E2,3.916797E2,1.4446924E2,8.4921875E2,9.977002E1,0E0,0E0,0E0,0E0,0E0,0E0,0E0,0E0,0E0,0E0,0E0,0E0,0E0,0E0,0E0,0E0,0E0,0E0,0E0,0E0,0E0,0E0,0E0,0E0,0E0,0E0,0E0,0E0,0E0,0E0,0E0,0E0],"parents":[2147483647,0,0,1,1,2,2,3,3,4,4,5,5,6,6,7,7,8,8,9,9,10,10,11,11,12,12,13,13,14,14,15,15,16,16,17,17,18,18,19,19,20,20,21,21,22,22,23,23,24,24,25,25,26,26,27,27,28,28,29,29,30,30],"right_children":[2,4,6,8,10,12,14,16,18,20,22,24,26,28,30,32,34,36,38,40,42,44,46,48,50,52,54,56,58,60,62,-1,-1,-1,-1,-1,-1,-1,-1,-1,-1,-1,-1,-1,-1,-1,-1,-1,-1,-1,-1,-1,-1,-1,-1,-1,-1,-1,-1,-1,-1,-1,-1],"split_conditions":[5.5106064E1,2.680913E1,9.526908E1,8.1245E3,9.9305E3,4.6745E3,1.0950648E2,1.2407119E1,8.334779E-1,4.0870102E1,1.0799781E0,8.096347E1,7.815355E1,9.4875E3,1.0909E4,5.1841813E-1,2.562E3,1.26185E4,1.13025E4,4.2720997E-1,6.938954E-1,3.7666634E1,1.194E4,2.113E3,2.5273976E-1,3.4018475E-1,1.1051E4,2.511E3,3.3764E-1,1.327123E2,1.327123E2,-3.937939E-1,-5.388594E-1,-1.9051057E-1,-3.1481183E-1,-3.8259628E-1,-5.396145E-1,-4.822549E-1,-6.0717624E-1,-1.449791E-1,-2.401187E-1,-4.6678953E-2,-1.8836187E-1,-3.19617E-1,-2.272884E-1,-3.6574432E-1,-4.9182412E-1,2.274667E-1,1.1385461E-1,3.4512493E-1,2.3561315E-1,4.5511957E-2,-5.9928734E-2,1.5736856E-1,5.7395376E-2,4.1937444E-1,3.0392706E-1,2.5000897E-1,1.7785911E-1,4.3987218E-1,7.11924E-1,2.7801836E-1,4.64974E-1],"split_indices":[1,1,1,0,0,0,1,1,2,1,2,1,1,0,0,2,0,0,0,2,2,1,0,0,2,2,0,0,2,1,1,0,0,0,0,0,0,0,0,0,0,0,0,0,0,0,0,0,0,0,0,0,0,0,0,0,0,0,0,0,0,0,0],"split_type":[0,0,0,0,0,0,0,0,0,0,0,0,0,0,0,0,0,0,0,0,0,0,0,0,0,0,0,0,0,0,0,0,0,0,0,0,0,0,0,0,0,0,0,0,0,0,0,0,0,0,0,0,0,0,0,0,0,0,0,0,0,0,0],"sum_hessian":[2E4,9.893E3,1.0107E4,3.794E3,6.099E3,3.852E3,6.255E3,2.246E3,1.548E3,4.431E3,1.668E3,1.15E3,2.702E3,3.63E3,2.625E3,2.38E2,2.008E3,1.183E3,3.65E2,3.43E3,1.001E3,1.321E3,3.47E2,3.16E2,8.34E2,5.32E2,2.17E3,2.359E3,1.271E3,2.096E3,5.29E2,1.22E2,1.16E2,4.99E2,1.509E3,1.026E3,1.57E2,2.3E2,1.35E2,1.367E3,2.063E3,7.3E2,2.71E2,8.32E2,4.89E2,2.03E2,1.44E2,9.2E1,2.24E2,1.84E2,6.5E2,1.69E2,3.63E2,1.567E3,6.03E2,3.54E2,2.005E3,4.31E2,8.4E2,1.972E3,1.24E2,4.97E2,3.2E1],"tree_param":{"num_deleted":"0","num_feature":"3","num_nodes":"63","size_leaf_vector":"1"}},{"base_weights":[4.0476053E-4,-2.417562E0,2.3671799E0,-3.163227E0,-1.888262E0,1.5968044E0,3.3956397E0,-2.7997215E0,-4.0873227E0,-1.0581691E0,-2.2686377E0,6.855931E-1,1.9980842E0,4.4569554E0,3.0439773E0,-2.5279424E0,-3.8711693E0,-5.6034865E0,-3.906471E0,-1.3497221E0,-2.678771E-1,-1.9487386E0,-3.047292E0,1.0172192E0,-3.819802E-1,2.3897433E0,1.3033956E0,3.8918684E0,5.332385E0,2.7771404E0,4.161957E0,-1.4533634E-1,-2.7529296E-1,-2.9819497E-1,-4.211164E-1,-4.9250332E-1,-6.211164E-1,-3.0059516E-1,-4.1424996E-1,-5.986104E-2,-1.6440344E-1,1.4202148E-3,-1.24759056E-1,-1.6877791E-1,-2.879932E-1,-2.82588E-1,-4.1628304E-1,1.8077737E-1,7.045164E-2,-1.77092E-2,-1.6836879E-1,3.0644116E-1,2.1893036E-1,1.7074855E-1,9.106963E-2,4.5396575E-1,3.7044397E-1,5.830381E-1,4.538269E-1,3.2074293E-1,2.362405E-1,3.928759E-1,6.4612573E-1],"categories":[],"categories_nodes":[],"categories_segments":[],"categories_sizes":[],"default_left":[0,0,0,0,0,0,0,0,0,0,0,0,0,0,0,0,0,0,0,0,0,0,0,0,0,0,0,0,0,0,0,0,0,0,0,0,0,0,0,0,0,0,0,0,0,0,0,0,0,0,0,0,0,0,0,0,0,0,0,0,0,0,0],"id":19,"left_children":[1,3,5,7,9,11,13,15,17,19,21,23,25,27,29,31,33,35,37,39,41,43,45,47,49,51,53,55,57,59,61,-1,-1,-1,-1,-1,-1,-1,-1,-1,-1,-1,-1,-1,-1,-1,-1,-1,-1,-1,-1,-1,-1,-1,-1,-1,-1,-1,-1,-1,-1,-1,-1],"loss_changes":[1.14467125E5,3.898996E3,8.0031523E3,1.3678203E3,1.8254609E3,2.112457E3,1.6017539E3,8.492461E2,2.9535938E2,4.192185E2,9.827031E2,6.2667676E2,1.0887461E3,5.1104297E2,9.5916797E2,5.655996E2,1.673291E2,1.9295898E1,2.0795996E2,2.930276E2,1.3598528E2,6.794365E2,2.732666E2,3.324579E2,1.1171774E2,3.401582E2,2.2838062E2,6.2953125E1,1.3924023E2,4.6176172E2,3.0973535E2,0E0,0E0,0E0,0E0,0E0,0E0,0E0,0E0,0E0,0E0,0E0,0E0,0E0,0E0,0E0,0E0,0E0,0E0,0E0,0E0,0E0,0E0,0E0,0E0,0E0,0E0,0E0,0E0,0E0,0E0,0E0,0E0],"parents":[2147483647,0,0,1,1,2,2,3,3,4,4,5,5,6,6,7,7,8,8,9,9,10,10,11,11,12,12,13,13,14,14,15,15,16,16,17,17,18,18,19,19,20,20,21,21,22,22,23,23,24,24,25,25,26,26,27,27,28,28,29,29,30,30],"right_children":[2,4,6,8,10,12,14,16,18,20,22,24,26,28,30,32,34,36,38,40,42,44,46,48,50,52,54,56,58,60,62,-1,-1,-1,-1,-1,-1,-1,-1,-1,-1,-1,-1,-1,-1,-1,-1,-1,-1,-1,-1,-1,-1,-1,-1,-1,-1,-1,-1,-1,-1,-1,-1],"split_conditions":[5.5106064E1,2.7649069E1,1.0237359E2,9.8805E3,4.867E3,8.566279E1,4.086E3,1.4153957E0,1.2407119E1,3.997319E1,6.938954E-1,1.0471E4,9.0615E3,1.1482036E2,1.2079437E2,2.4155E3,3.1165E3,1.1701E4,2.9218274E-1,3.537204E-1,9.75166E-1,1.14E4,1.194E4,3.8965E3,1.32505E4,3.1165E3,4.2720997E-1,1.632E3,2.819E3,8.863E3,1.3610313E2,-1.4533634E-1,-2.7529296E-1,-2.9819497E-1,-4.211164E-1,-4.9250332E-1,-6.211164E-1,-3.0059516E-1,-4.1424996E-1,-5.986104E-2,-1.6440344E-1,1.4202148E-3,-1.24759056E-1,-1.6877791E-1,-2.879932E-1,-2.82588E-1,-4.1628304E-1,1.8077737E-1,7.045164E-2,-1.77092E-2,-1.6836879E-1,3.0644116E-1,2.1893036E-1,1.7074855E-1,9.106963E-2,4.5396575E-1,3.7044397E-1,5.830381E-1,4.538269E-1,3.2074293E-1,2.362405E-1,3.928759E-1,6.4612573E-1],"split_indices":[1,1,1,0,0,1,0,2,1,1,2,0,0,1,1,0,0,0,2,2,2,0,0,0,0,0,2,0,0,0,1,0,0,0,0,0,0,0,0,0,0,0,0,0,0,0,0,0,0,0,0,0,0,0,0,0,0,0,0,0,0,0,0],"split_type":[0,0,0,0,0,0,0,0,0,0,0,0,0,0,0,0,0,0,0,0,0,0,0,0,0,0,0,0,0,0,0,0,0,0,0,0,0,0,0,0,0,0,0,0,0,0,0,0,0,0,0,0,0,0,0,0,0,0,0,0,0,0,0],"sum_hessian":[2E4,9.893E3,1.0107E4,4.105E3,5.788E3,5.78E3,4.327E3,2.949E3,1.156E3,1.82E3,3.968E3,1.768E3,4.012E3,1.074E3,3.253E3,2.355E3,5.94E2,1.2E2,1.036E3,1.329E3,4.91E2,2.815E3,1.153E3,1.349E3,4.19E2,2.564E3,1.448E3,6.56E2,4.18E2,2.629E3,6.24E2,4.09E2,1.946E3,1.67E2,4.27E2,6.1E1,5.9E1,2.18E2,8.18E2,3.75E2,9.54E2,3.82E2,1.09E2,2.201E3,6.14E2,9.65E2,1.88E2,3.81E2,9.68E2,3.63E2,5.6E1,5.84E2,1.98E3,7.12E2,7.36E2,1.42E2,5.14E2,2.53E2,1.65E2,1.287E3,1.342E3,5.69E2,5.5E1],"tree_param":{"num_deleted":"0","num_feature":"3","num_nodes":"63","size_leaf_vector":"1"}},{"base_weights":[3.5569473E-4,-2.0790737E0,2.2341843E0,-2.5744166E0,-1.2180538E0,1.7254205E0,3.3531282E0,-2.235611E0,-3.3675604E0,-3.5295722E-1,-1.5678135E0,1.1220553E0,2.1180196E0,4.4494486E0,3.0678015E0,-3.5124156E0,-2.0553195E0,-3.1346197E0,-4.280279E0,-7.130082E-1,5.9006685E-1,-1.3198606E0,-2.6224258E0,1.4748963E0,4.0856758E-1,2.660677E0,1.6926322E0,4.24972E0,6.7410126E0,2.8252625E0,3.997297E0,-3.0010277E-1,-4.1529426E-1,-1.7725624E-1,-2.7779654E-1,-2.8234676E-1,-3.7987396E-1,-5.0996894E-1,-3.7937385E-1,8.049225E-3,-1.0594094E-1,1.7718673E-1,3.9763123E-2,-1.7301486E-1,-7.225177E-2,-2.2830676E-1,-3.4738204E-1,1.9103047E-1,1.07272245E-1,5.4112185E-2,-8.500305E-2,3.5883272E-1,2.5349626E-1,2.187068E-1,1.3755524E-1,3.758914E-1,4.7290993E-1,7.281027E-1,4.2626897E-1,3.060381E-1,2.1396132E-1,3.7365985E-1,5.816395E-1],"categories":[],"categories_nodes":[],"categories_segments":[],"categories_sizes":[],"default_left":[0,0,0,0,0,0,0,0,0,0,0,0,0,0,0,0,0,0,0,0,0,0,0,0,0,0,0,0,0,0,0,0,0,0,0,0,0,0,0,0,0,0,0,0,0,0,0,0,0,0,0,0,0,0,0,0,0,0,0,0,0,0,0],"id":20,"left_children":[1,3,5,7,9,11,13,15,17,19,21,23,25,27,29,31,33,35,37,39,41,43,45,47,49,51,53,55,57,59,61,-1,-1,-1,-1,-1,-1,-1,-1,-1,-1,-1,-1,-1,-1,-1,-1,-1,-1,-1,-1,-1,-1,-1,-1,-1,-1,-1,-1,-1,-1,-1,-1],"loss_changes":[9.291106E4,4.4149844E3,5.4837656E3,1.7593164E3,1.1446963E3,1.568377E3,9.2884375E2,1.0539863E3,4.0457227E2,3.7085538E2,7.012661E2,6.579695E2,9.225488E2,2.5512207E2,5.2840625E2,1.739165E2,8.209922E2,3.1370312E2,1.3892773E2,2.1723215E2,6.797642E1,5.340105E2,1.4E2,3.0439282E2,1.4510374E2,1.9650293E2,3.5036377E2,1.1704004E2,3.3203125E1,3.000703E2,2.1206494E2,0E0,0E0,0E0,0E0,0E0,0E0,0E0,0E0,0E0,0E0,0E0,0E0,0E0,0E0,0E0,0E0,0E0,0E0,0E0,0E0,0E0,0E0,0E0,0E0,0E0,0E0,0E0,0E0,0E0,0E0,0E0,0E0],"parents":[2147483647,0,0,1,1,2,2,3,3,4,4,5,5,6,6,7,7,8,8,9,9,10,10,11,11,12,12,13,13,14,14,15,15,16,16,17,17,18,18,19,19,20,20,21,21,22,22,23,23,24,24,25,25,26,26,27,27,28,28,29,29,30,30],"right_children":[2,4,6,8,10,12,14,16,18,20,22,24,26,28,30,32,34,36,38,40,42,44,46,48,50,52,54,56,58,60,62,-1,-1,-1,-1,-1,-1,-1,-1,-1,-1,-1,-1,-1,-1,-1,-1,-1,-1,-1,-1,-1,-1,-1,-1,-1,-1,-1,-1,-1,-1,-1,-1],"split_conditions":[7.36818E1,3.4311974E1,1.0774864E2,9.729E3,4.719E3,9.212225E1,3.4585E3,1.585859E1,1.0799781E0,4.5805782E1,1.0799781E0,9.1585E3,6.912E3,1.3015129E2,1.2339687E2,5.262217E-1,7.3086494E-1,1.22775E4,2.2211988E1,2.216E3,2.0531245E-1,4.2824223E1,1.1198E4,4.2503682E-1,1.32505E4,1.918E3,3.635827E-1,1.1482036E2,3.2195E3,1.0909E4,1.3610313E2,-3.0010277E-1,-4.1529426E-1,-1.7725624E-1,-2.7779654E-1,-2.8234676E-1,-3.7987396E-1,-5.0996894E-1,-3.7937385E-1,8.049225E-3,-1.0594094E-1,1.7718673E-1,3.9763123E-2,-1.7301486E-1,-7.225177E-2,-2.2830676E-1,-3.4738204E-1,1.9103047E-1,1.07272245E-1,5.4112185E-2,-8.500305E-2,3.5883272E-1,2.5349626E-1,2.187068E-1,1.3755524E-1,3.758914E-1,4.7290993E-1,7.281027E-1,4.2626897E-1,3.060381E-1,2.1396132E-1,3.7365985E-1,5.816395E-1],"split_indices":[1,1,1,0,0,1,0,1,2,1,2,0,0,1,1,2,2,0,1,0,2,1,0,2,0,0,2,1,0,0,1,0,0,0,0,0,0,0,0,0,0,0,0,0,0,0,0,0,0,0,0,0,0,0,0,0,0,0,0,0,0,0,0],"split_type":[0,0,0,0,0,0,0,0,0,0,0,0,0,0,0,0,0,0,0,0,0,0,0,0,0,0,0,0,0,0,0,0,0,0,0,0,0,0,0,0,0,0,0,0,0,0,0,0,0,0,0,0,0,0,0,0,0,0,0,0,0,0,0],"sum_hessian":[2E4,1.0358E4,9.642E3,6.574E3,3.784E3,6.63E3,3.012E3,4.609E3,1.965E3,1.09E3,2.694E3,2.615E3,4.015E3,6.19E2,2.393E3,5.68E2,4.041E3,1.569E3,3.96E2,7.89E2,3.01E2,2.183E3,5.11E2,1.749E3,8.66E2,1.762E3,2.253E3,5.72E2,4.7E1,1.901E3,4.92E2,3.19E2,2.49E2,2.907E3,1.134E3,1.072E3,4.97E2,1.44E2,2.52E2,2.4E2,5.49E2,4.1E1,2.6E2,1.293E3,8.9E2,3.68E2,1.43E2,8.38E2,9.11E2,7.84E2,8.2E1,2.07E2,1.555E3,8.78E2,1.375E3,2.87E2,2.85E2,3.7E1,1E1,1.413E3,4.88E2,4.33E2,5.9E1],"tree_param":{"num_deleted":"0","num_feature":"3","num_nodes":"63","size_leaf_vector":"1"}},{"base_weights":[3.8510477E-4,-1.8433417E0,2.0434864E0,-2.2337098E0,-8.707616E-1,1.5893204E0,3.0189707E0,-1.5396111E0,-2.5683835E0,6.0257204E-2,-1.1620607E0,1.9098691E0,9.913089E-1,3.4159632E0,2.3410935E0,-7.94264E-1,-1.7921197E0,-3.206477E0,-2.2508414E0,-3.5794774E-1,7.73809E-1,-1.4699608E0,-3.888914E-1,1.4978213E0,2.329294E0,4.265876E-1,1.3690032E0,3.2099838E0,4.792591E0,2.5275426E0,1.474519E0,-4.0042877E-2,-1.4077735E-1,-1.6229294E-1,-2.8315133E-1,-4.357051E-1,-2.9848534E-1,-2.0726545E-1,-3.243328E-1,1.3945716E-2,-8.059876E-2,1.9331907E-1,5.6610383E-2,-1.0553765E-1,-2.0412652E-1,3.1610657E-2,-6.587664E-2,1.9072185E-1,1.1382804E-1,2.5931028E-1,1.79947E-1,6.817869E-2,-3.3307217E-2,1.5473656E-1,8.5043594E-2,3.9567426E-1,2.979538E-1,4.3431422E-1,6.4171E-1,2.3277323E-1,3.58397E-1,2.0445509E-1,7.106323E-2],"categories":[],"categories_nodes":[],"categories_segments":[],"categories_sizes":[],"default_left":[0,0,0,0,0,0,0,0,0,0,0,0,0,0,0,0,0,0,0,0,0,0,0,0,0,0,0,0,0,0,0,0,0,0,0,0,0,0,0,0,0,0,0,0,0,0,0,0,0,0,0,0,0,0,0,0,0,0,0,0,0,0,0],"id":21,"left_children":[1,3,5,7,9,11,13,15,17,19,21,23,25,27,29,31,33,35,37,39,41,43,45,47,49,51,53,55,57,59,61,-1,-1,-1,-1,-1,-1,-1,-1,-1,-1,-1,-1,-1,-1,-1,-1,-1,-1,-1,-1,-1,-1,-1,-1,-1,-1,-1,-1,-1,-1,-1,-1],"loss_changes":[7.5345945E4,3.9898438E3,4.1986875E3,1.7387344E3,8.1721094E2,1.2395039E3,8.0283594E2,4.5836572E2,1.0180508E3,2.1483441E2,5.457732E2,7.2495996E2,4.8188257E2,5.2280664E2,1.7658789E2,1.4924176E2,3.1616406E2,4.1513086E2,5.913789E2,1.0128958E2,6.2960953E1,3.8652295E2,1.2482941E2,3.1120703E2,2.870381E2,1.7625613E2,1.2401196E2,2.7284375E2,1.510127E2,1.8522217E2,8.563504E1,0E0,0E0,0E0,0E0,0E0,0E0,0E0,0E0,0E0,0E0,0E0,0E0,0E0,0E0,0E0,0E0,0E0,0E0,0E0,0E0,0E0,0E0,0E0,0E0,0E0,0E0,0E0,0E0,0E0,0E0,0E0,0E0],"parents":[2147483647,0,0,1,1,2,2,3,3,4,4,5,5,6,6,7,7,8,8,9,9,10,10,11,11,12,12,13,13,14,14,15,15,16,16,17,17,18,18,19,19,20,20,21,21,22,22,23,23,24,24,25,25,26,26,27,27,28,28,29,29,30,30],"right_children":[2,4,6,8,10,12,14,16,18,20,22,24,26,28,30,32,34,36,38,40,42,44,46,48,50,52,54,56,58,60,62,-1,-1,-1,-1,-1,-1,-1,-1,-1,-1,-1,-1,-1,-1,-1,-1,-1,-1,-1,-1,-1,-1,-1,-1,-1,-1,-1,-1,-1,-1,-1,-1],"split_conditions":[7.643975E1,3.7153038E1,1.0774864E2,4.915E3,4.0395E3,9.1585E3,8.9595E3,1.8245E3,2.3192005E1,4.6442806E1,4.919501E1,9.526908E1,9.313982E1,1.26920975E2,1.27675E4,6.119516E-1,1.6684377E0,1.2407119E1,1.1988E4,2.366E3,1.581E3,5.495304E-1,3.4592864E-1,4.0836284E-1,5.388114E-1,5.789438E-1,1.26185E4,2.7695E3,1.3610313E2,1.25397064E2,4.3672466E-1,-4.0042877E-2,-1.4077735E-1,-1.6229294E-1,-2.8315133E-1,-4.357051E-1,-2.9848534E-1,-2.0726545E-1,-3.243328E-1,1.3945716E-2,-8.059876E-2,1.9331907E-1,5.6610383E-2,-1.0553765E-1,-2.0412652E-1,3.1610657E-2,-6.587664E-2,1.9072185E-1,1.1382804E-1,2.5931028E-1,1.79947E-1,6.817869E-2,-3.3307217E-2,1.5473656E-1,8.5043594E-2,3.9567426E-1,2.979538E-1,4.3431422E-1,6.4171E-1,2.3277323E-1,3.58397E-1,2.0445509E-1,7.106323E-2],"split_indices":[1,1,1,0,0,0,0,0,1,1,1,1,1,1,0,2,2,1,0,0,0,2,2,2,2,2,0,0,1,1,2,0,0,0,0,0,0,0,0,0,0,0,0,0,0,0,0,0,0,0,0,0,0,0,0,0,0,0,0,0,0,0,0],"split_type":[0,0,0,0,0,0,0,0,0,0,0,0,0,0,0,0,0,0,0,0,0,0,0,0,0,0,0,0,0,0,0,0,0,0,0,0,0,0,0,0,0,0,0,0,0,0,0,0,0,0,0,0,0,0,0,0,0,0,0,0,0,0,0],"sum_hessian":[2E4,1.0513E4,9.487E3,7.501E3,3.012E3,6.475E3,3.012E3,2.442E3,5.059E3,7.18E2,2.294E3,4.214E3,2.261E3,1.897E3,1.115E3,6.19E2,1.823E3,1.678E3,3.381E3,4.53E2,2.65E2,1.64E3,6.54E2,2.128E3,2.086E3,9.07E2,1.354E3,1.653E3,2.44E2,9.16E2,1.99E2,3.78E2,2.41E2,1.57E3,2.53E2,2.68E2,1.41E3,2.869E3,5.12E2,2.15E2,2.38E2,3.9E1,2.26E2,9.52E2,6.88E2,1.81E2,4.73E2,9.93E2,1.135E3,1.39E3,6.96E2,6.79E2,2.28E2,1.006E3,3.48E2,3.86E2,1.267E3,1.94E2,5E1,7.73E2,1.43E2,1.13E2,8.6E1],"tree_param":{"num_deleted":"0","num_feature":"3","num_nodes":"63","size_leaf_vector":"1"}},{"base_weights":[4.267649E-4,-1.7796217E0,1.715816E0,-2.4265935E0,-1.4227853E0,8.727668E-1,2.2452774E0,-2.1862729E0,-3.355577E0,-9.236002E-1,-1.8165658E0,1.6309146E0,6.2690455E-1,1.9256512E0,3.0025551E0,-1.792678E0,-2.6898298E0,-3.096323E0,-4.207727E0,-1.7749612E-1,-1.1173658E0,-1.4059249E0,-2.2247908E0,1.0228341E0,1.877813E0,7.3742986E-2,9.8288304E-1,2.5509424E0,1.6633512E0,3.3249018E0,1.9737151E0,-2.5583392E-1,-1.5516195E-1,-3.8429266E-1,-2.521332E-1,-1.9881327E-1,-3.2427272E-1,-4.7808442E-1,-3.546193E-1,-6.8761155E-2,1.387868E-2,-9.0193994E-2,-1.8534316E-1,-1.166079E-1,-2.0263684E-1,-2.0278029E-1,-2.9998893E-1,2.0791614E-1,7.727982E-2,2.6129815E-1,1.6834548E-1,2.7051667E-2,-9.115199E-2,1.397224E-1,6.448555E-2,2.7614942E-1,2.0759653E-1,2.0686327E-1,1.3819502E-1,3.2174885E-1,5.689866E-1,2.3360328E-1,1.4566378E-1],"categories":[],"categories_nodes":[],"categories_segments":[],"categories_sizes":[],"default_left":[0,0,0,0,0,0,0,0,0,0,0,0,0,0,0,0,0,0,0,0,0,0,0,0,0,0,0,0,0,0,0,0,0,0,0,0,0,0,0,0,0,0,0,0,0,0,0,0,0,0,0,0,0,0,0,0,0,0,0,0,0,0,0],"id":22,"left_children":[1,3,5,7,9,11,13,15,17,19,21,23,25,27,29,31,33,35,37,39,41,43,45,47,49,51,53,55,57,59,61,-1,-1,-1,-1,-1,-1,-1,-1,-1,-1,-1,-1,-1,-1,-1,-1,-1,-1,-1,-1,-1,-1,-1,-1,-1,-1,-1,-1,-1,-1,-1,-1],"loss_changes":[6.107563E4,2.2626973E3,4.5446836E3,7.7137305E2,1.2424102E3,7.317156E2,1.508457E3,5.449785E2,1.4493115E2,4.0358374E2,5.8979395E2,1.425083E2,5.84761E2,7.177471E2,6.086367E2,2.83958E2,2.2637793E2,8.311133E1,4.522461E1,9.3189064E1,3.498728E2,2.60437E2,2.644746E2,7.234671E1,9.319238E1,2.259157E2,2.5218494E2,1.24177734E2,3.511416E2,3.4012695E2,7.996631E1,0E0,0E0,0E0,0E0,0E0,0E0,0E0,0E0,0E0,0E0,0E0,0E0,0E0,0E0,0E0,0E0,0E0,0E0,0E0,0E0,0E0,0E0,0E0,0E0,0E0,0E0,0E0,0E0,0E0,0E0,0E0,0E0],"parents":[2147483647,0,0,1,1,2,2,3,3,4,4,5,5,6,6,7,7,8,8,9,9,10,10,11,11,12,12,13,13,14,14,15,15,16,16,17,17,18,18,19,19,20,20,21,21,22,22,23,23,24,24,25,25,26,26,27,27,28,28,29,29,30,30],"right_children":[2,4,6,8,10,12,14,16,18,20,22,24,26,28,30,32,34,36,38,40,42,44,46,48,50,52,54,56,58,60,62,-1,-1,-1,-1,-1,-1,-1,-1,-1,-1,-1,-1,-1,-1,-1,-1,-1,-1,-1,-1,-1,-1,-1,-1,-1,-1,-1,-1,-1,-1,-1,-1],"split_conditions":[5.2565765E1,2.601137E1,9.526908E1,1.07125E4,6.5805E3,4.0395E3,1.13465256E2,5.635258E-1,8.1139755E-1,1.964E3,4.9205124E-1,8.096347E1,8.377109E1,4.771E3,1.037E4,1.585859E1,1.2407119E1,1.5403761E-1,2.0885687E1,3.215384E1,8.492266E-1,1.14E4,1.189E4,1.581E3,2.4032235E-1,1.20855E4,4.035381E-1,5.5566365E-1,3.7630662E-1,1.3610313E2,1.2321E4,-2.5583392E-1,-1.5516195E-1,-3.8429266E-1,-2.521332E-1,-1.9881327E-1,-3.2427272E-1,-4.7808442E-1,-3.546193E-1,-6.8761155E-2,1.387868E-2,-9.0193994E-2,-1.8534316E-1,-1.166079E-1,-2.0263684E-1,-2.0278029E-1,-2.9998893E-1,2.0791614E-1,7.727982E-2,2.6129815E-1,1.6834548E-1,2.7051667E-2,-9.115199E-2,1.397224E-1,6.448555E-2,2.7614942E-1,2.0759653E-1,2.0686327E-1,1.3819502E-1,3.2174885E-1,5.689866E-1,2.3360328E-1,1.4566378E-1],"split_indices":[1,1,1,0,0,0,1,2,2,0,2,1,1,0,0,1,1,2,1,1,2,0,0,0,2,0,2,2,2,1,0,0,0,0,0,0,0,0,0,0,0,0,0,0,0,0,0,0,0,0,0,0,0,0,0,0,0,0,0,0,0,0,0],"split_type":[0,0,0,0,0,0,0,0,0,0,0,0,0,0,0,0,0,0,0,0,0,0,0,0,0,0,0,0,0,0,0,0,0,0,0,0,0,0,0,0,0,0,0,0,0,0,0,0,0,0,0,0,0,0,0,0,0,0,0,0,0,0,0],"sum_hessian":[2E4,9.815E3,1.0185E4,3.487E3,6.328E3,3.93E3,6.255E3,2.773E3,7.14E2,2.792E3,3.536E3,9.61E2,2.969E3,4.401E3,1.854E3,1.559E3,1.214E3,5.51E2,1.63E2,5.76E2,2.216E3,1.765E3,1.771E3,2.79E2,6.82E2,1.163E3,1.806E3,1.298E3,3.103E3,1.41E3,4.44E2,3.71E2,1.188E3,1.52E2,1.062E3,6.6E1,4.85E2,8.4E1,7.9E1,2.2E2,3.56E2,1.716E3,5E2,1.275E3,4.9E2,1.415E3,3.56E2,5.2E1,2.27E2,1.4E2,5.42E2,9.7E2,1.93E2,8.1E2,9.96E2,8.96E2,4.02E2,1.269E3,1.834E3,1.351E3,5.9E1,2.59E2,1.85E2],"tree_param":{"num_deleted":"0","num_feature":"3","num_nodes":"63","size_leaf_vector":"1"}},{"base_weights":[3.5472546E-4,-1.4952756E0,1.6577173E0,-1.8958085E0,-8.264943E-1,1.2546146E0,2.405197E0,-1.1465607E0,-2.1369402E0,-5.693277E-1,-1.5621384E0,1.4693062E0,6.05383E-1,2.790799E0,1.9057913E0,-5.64077E-1,-1.3748131E0,-1.936153E0,-2.907477E0,-8.880075E-1,1.8365715E-2,-1.3590568E0,-2.5282853E0,9.516121E-1,1.6870493E0,-3.051643E-2,8.381391E-1,2.473721E0,3.3780224E0,1.793701E0,3.4021928E0,-3.237397E-2,-1.4663616E-1,-2.2256553E-1,-1.2301735E-1,-3.197221E-1,-1.8434457E-1,-3.5519865E-1,-2.5507534E-1,-4.4457164E-2,-1.233503E-1,2.0956425E-2,-7.742441E-2,-1.0677401E-1,-1.803761E-1,-2.1475637E-1,-3.326826E-1,2.4927703E-1,8.719415E-2,2.2368436E-1,1.5249966E-1,2.5907198E-2,-9.36623E-2,1.05824105E-1,4.2820897E-2,3.1836247E-1,2.3064642E-1,4.2308673E-1,3.0452314E-1,2.454716E-1,1.6004291E-1,5.0667995E-1,2.895566E-1],"categories":[],"categories_nodes":[],"categories_segments":[],"categories_sizes":[],"default_left":[0,0,0,0,0,0,0,0,0,0,0,0,0,0,0,0,0,0,0,0,0,0,0,0,0,0,0,0,0,0,0,0,0,0,0,0,0,0,0,0,0,0,0,0,0,0,0,0,0,0,0,0,0,0,0,0,0,0,0,0,0,0,0],"id":23,"left_children":[1,3,5,7,9,11,13,15,17,19,21,23,25,27,29,31,33,35,37,39,41,43,45,47,49,51,53,55,57,59,61,-1,-1,-1,-1,-1,-1,-1,-1,-1,-1,-1,-1,-1,-1,-1,-1,-1,-1,-1,-1,-1,-1,-1,-1,-1,-1,-1,-1,-1,-1,-1,-1],"loss_changes":[4.9580992E4,2.8148066E3,2.8558223E3,1.1854375E3,7.444917E2,8.5855566E2,6.345957E2,2.1234888E2,7.637637E2,5.4707886E2,1.9669482E2,5.206465E2,2.2707214E2,3.4038867E2,2.3727686E2,9.775955E1,1.389104E2,4.5566895E2,2.268291E2,2.8962207E2,1.5595139E2,1.0754346E2,4.636328E1,1.6653308E2,2.8704004E2,1.0835061E2,1.0087103E2,1.3751465E2,1.7273438E2,1.6879688E2,6.966211E1,0E0,0E0,0E0,0E0,0E0,0E0,0E0,0E0,0E0,0E0,0E0,0E0,0E0,0E0,0E0,0E0,0E0,0E0,0E0,0E0,0E0,0E0,0E0,0E0,0E0,0E0,0E0,0E0,0E0,0E0,0E0,0E0],"parents":[2147483647,0,0,1,1,2,2,3,3,4,4,5,5,6,6,7,7,8,8,9,9,10,10,11,11,12,12,13,13,14,14,15,15,16,16,17,17,18,18,19,19,20,20,21,21,22,22,23,23,24,24,25,25,26,26,27,27,28,28,29,29,30,30],"right_children":[2,4,6,8,10,12,14,16,18,20,22,24,26,28,30,32,34,36,38,40,42,44,46,48,50,52,54,56,58,60,62,-1,-1,-1,-1,-1,-1,-1,-1,-1,-1,-1,-1,-1,-1,-1,-1,-1,-1,-1,-1,-1,-1,-1,-1,-1,-1,-1,-1,-1,-1,-1,-1],"split_conditions":[7.643975E1,3.4311974E1,1.064577E2,3.7475E3,1.037E4,1.037E4,8.276E3,1.7295E3,1.0799781E0,4.410728E1,1.4638424E0,8.877151E1,8.912718E1,1.1828902E2,1.3015129E2,1.5072818E0,1.6441185E1,1.3386239E1,2.2211988E1,4.5905912E-1,6.938954E-1,1.2321E4,1.24215E4,1.486E3,3.3135E3,5.661629E-1,1.26185E4,2.216E3,2.819E3,2.7386156E-1,9.5325E3,-3.237397E-2,-1.4663616E-1,-2.2256553E-1,-1.2301735E-1,-3.197221E-1,-1.8434457E-1,-3.5519865E-1,-2.5507534E-1,-4.4457164E-2,-1.233503E-1,2.0956425E-2,-7.742441E-2,-1.0677401E-1,-1.803761E-1,-2.1475637E-1,-3.326826E-1,2.4927703E-1,8.719415E-2,2.2368436E-1,1.5249966E-1,2.5907198E-2,-9.36623E-2,1.05824105E-1,4.2820897E-2,3.1836247E-1,2.3064642E-1,4.2308673E-1,3.0452314E-1,2.454716E-1,1.6004291E-1,5.0667995E-1,2.895566E-1],"split_indices":[1,1,1,0,0,0,0,0,2,1,2,1,1,1,1,2,1,1,1,2,2,0,0,0,0,2,0,0,0,2,0,0,0,0,0,0,0,0,0,0,0,0,0,0,0,0,0,0,0,0,0,0,0,0,0,0,0,0,0,0,0,0,0],"split_type":[0,0,0,0,0,0,0,0,0,0,0,0,0,0,0,0,0,0,0,0,0,0,0,0,0,0,0,0,0,0,0,0,0,0,0,0,0,0,0,0,0,0,0,0,0,0,0,0,0,0,0,0,0,0,0,0,0,0,0,0,0,0,0],"sum_hessian":[2E4,1.0513E4,9.487E3,6.574E3,3.939E3,6.165E3,3.322E3,1.602E3,4.972E3,2.92E3,1.019E3,4.632E3,1.533E3,1.872E3,1.45E3,4.52E2,1.15E3,3.947E3,1.025E3,1.893E3,1.027E3,8.44E2,1.75E2,1.373E3,3.259E3,4.11E2,1.122E3,1.219E3,6.53E2,1.351E3,9.9E1,3.58E2,9.4E1,1.65E2,9.85E2,2.68E2,3.679E3,3.62E2,6.63E2,8.3E2,1.063E3,8.28E2,1.99E2,5.12E2,3.32E2,1.21E2,5.4E1,6.6E1,1.307E3,7.39E2,2.52E3,3.12E2,9.9E1,7.29E2,3.93E2,2.29E2,9.9E2,1.8E2,4.73E2,3.03E2,1.048E3,2.1E1,7.8E1],"tree_param":{"num_deleted":"0","num_feature":"3","num_nodes":"63","size_leaf_vector":"1"}},{"base_weights":[3.482837E-4,-1.4443836E0,1.3926013E0,-2.0471377E0,-1.1757183E0,9.1872627E-1,2.0337844E0,-1.8500705E0,-3.0176105E0,-7.821689E-1,-1.5540364E0,3.1147143E-1,1.1497359E0,2.436806E0,1.6399474E0,-1.5043954E0,-2.2976007E0,-2.7156124E0,-3.8953114E0,-6.262066E-1,-1.5679206E0,-1.4448521E0,-2.6327107E0,1.4850484E0,1.4937957E-1,1.3852113E0,6.6265327E-1,2.2392757E0,3.222608E0,1.4606885E0,2.3796432E0,-7.809236E-2,-1.7229743E-1,-3.1770125E-1,-2.1470201E-1,-1.5297458E-1,-2.8978404E-1,-3.5286665E-1,-4.396704E-1,7.112525E-3,-7.8396775E-2,-2.4326144E-2,-1.6739358E-1,-1.6415302E-1,-8.358279E-2,-2.5515464E-1,-4.096714E-1,2.3184328E-1,1.21402085E-1,3.168835E-2,-6.599197E-2,1.6979255E-1,1.1179512E-1,8.2916856E-2,2.0530632E-2,2.4828736E-1,1.8308069E-1,4.04728E-1,2.8357762E-1,2.0852697E-1,1.2846033E-1,2.8208098E-1,1.477446E-1],"categories":[],"categories_nodes":[],"categories_segments":[],"categories_sizes":[],"default_left":[0,0,0,0,0,0,0,0,0,0,0,0,0,0,0,0,0,0,0,0,0,0,0,0,0,0,0,0,0,0,0,0,0,0,0,0,0,0,0,0,0,0,0,0,0,0,0,0,0,0,0,0,0,0,0,0,0,0,0,0,0,0,0],"id":24,"left_children":[1,3,5,7,9,11,13,15,17,19,21,23,25,27,29,31,33,35,37,39,41,43,45,47,49,51,53,55,57,59,61,-1,-1,-1,-1,-1,-1,-1,-1,-1,-1,-1,-1,-1,-1,-1,-1,-1,-1,-1,-1,-1,-1,-1,-1,-1,-1,-1,-1,-1,-1,-1,-1],"loss_changes":[4.0232668E4,1.5871895E3,3.0930547E3,5.7294336E2,1.01002344E3,8.2155273E2,6.8296484E2,3.8592383E2,1.24339355E2,4.072245E2,4.0393066E2,3.0718546E2,4.8585156E2,3.2448828E2,2.8717676E2,2.236814E2,1.3818164E2,7.81167E1,8.016113E0,3.0599878E2,7.6971924E1,3.7546094E2,2.72146E1,4.1455933E1,1.9284102E2,2.371294E2,1.0530475E2,1.6570312E2,1.24739746E2,1.9165503E2,1.6538843E2,0E0,0E0,0E0,0E0,0E0,0E0,0E0,0E0,0E0,0E0,0E0,0E0,0E0,0E0,0E0,0E0,0E0,0E0,0E0,0E0,0E0,0E0,0E0,0E0,0E0,0E0,0E0,0E0,0E0,0E0,0E0,0E0],"parents":[2147483647,0,0,1,1,2,2,3,3,4,4,5,5,6,6,7,7,8,8,9,9,10,10,11,11,12,12,13,13,14,14,15,15,16,16,17,17,18,18,19,19,20,20,21,21,22,22,23,23,24,24,25,25,26,26,27,27,28,28,29,29,30,30],"right_children":[2,4,6,8,10,12,14,16,18,20,22,24,26,28,30,32,34,36,38,40,42,44,46,48,50,52,54,56,58,60,62,-1,-1,-1,-1,-1,-1,-1,-1,-1,-1,-1,-1,-1,-1,-1,-1,-1,-1,-1,-1,-1,-1,-1,-1,-1,-1,-1,-1,-1,-1,-1,-1],"split_conditions":[5.2565765E1,2.4809494E1,1.0237359E2,1.1198E4,6.912E3,8.4284096E1,7.5465E3,5.635258E-1,7.2569305E-1,1.5731086E0,1.7706302E0,2.6125E3,9.5805E3,1.2079437E2,1.2079437E2,3.505E3,1.2407119E1,1.9693495E-1,1.7706302E0,1.964E3,1.246E3,3.968276E1,1.30535E4,1.437E3,1.1701E4,4.035381E-1,1.26185E4,5.1324266E-1,2.819E3,2.6399744E-1,1.1448E4,-7.809236E-2,-1.7229743E-1,-3.1770125E-1,-2.1470201E-1,-1.5297458E-1,-2.8978404E-1,-3.5286665E-1,-4.396704E-1,7.112525E-3,-7.8396775E-2,-2.4326144E-2,-1.6739358E-1,-1.6415302E-1,-8.358279E-2,-2.5515464E-1,-4.096714E-1,2.3184328E-1,1.21402085E-1,3.168835E-2,-6.599197E-2,1.6979255E-1,1.1179512E-1,8.2916856E-2,2.0530632E-2,2.4828736E-1,1.8308069E-1,4.04728E-1,2.8357762E-1,2.0852697E-1,1.2846033E-1,2.8208098E-1,1.477446E-1],"split_indices":[1,1,1,0,0,1,0,2,2,2,2,0,0,1,1,0,1,2,2,0,0,1,0,0,0,2,0,2,0,2,0,0,0,0,0,0,0,0,0,0,0,0,0,0,0,0,0,0,0,0,0,0,0,0,0,0,0,0,0,0,0,0,0],"split_type":[0,0,0,0,0,0,0,0,0,0,0,0,0,0,0,0,0,0,0,0,0,0,0,0,0,0,0,0,0,0,0,0,0,0,0,0,0,0,0,0,0,0,0,0,0,0,0,0,0,0,0,0,0,0,0,0,0,0,0,0,0,0,0],"sum_hessian":[2E4,9.815E3,1.0185E4,3.024E3,6.791E3,5.858E3,4.327E3,2.516E3,5.08E2,3.33E3,3.461E3,1.615E3,4.243E3,2.136E3,2.191E3,1.422E3,1.094E3,3.81E2,1.27E2,2.78E3,5.5E2,3.145E3,3.16E2,1.95E2,1.42E3,2.859E3,1.384E3,1.71E3,4.26E2,1.766E3,4.25E2,3.31E2,1.091E3,1.57E2,9.37E2,5.2E1,3.29E2,7.8E1,4.9E1,5.13E2,2.267E3,4.1E1,5.09E2,2.376E3,7.69E2,3.02E2,1.4E1,4.6E1,1.49E2,1.177E3,2.43E2,1.315E3,1.544E3,1.014E3,3.7E2,1.068E3,6.42E2,1.33E2,2.93E2,3.86E2,1.38E3,2.84E2,1.41E2],"tree_param":{"num_deleted":"0","num_feature":"3","num_nodes":"63","size_leaf_vector":"1"}},{"base_weights":[2.834602E-4,-1.2133958E0,1.3452059E0,-1.6282661E0,-7.590282E-1,1.0482361E0,2.0337505E0,-8.9496756E-1,-1.8025099E0,-5.332454E-1,-1.4141914E0,1.4572732E0,8.035074E-1,2.9207149E0,1.8702741E0,-7.207694E-1,-1.5941346E0,-1.5558826E0,-2.2307115E0,-3.549408E-1,-1.2544174E0,-1.2338045E0,-2.2458386E0,9.859297E-1,1.6430824E0,4.9940282E-1,1.1072248E0,2.738289E0,4.8484597E0,2.305167E0,1.5960718E0,-1.489042E-1,-5.744983E-2,-1.2468233E-1,-1.956611E-1,-2.6511043E-1,-1.457139E-1,-2.6998994E-1,-2.0032926E-1,-6.506236E-2,5.802251E-3,-5.1956423E-2,-1.4341632E-1,-1.4831007E-1,-8.006128E-2,-2.486501E-1,-1.1829211E-1,1.2681882E-1,4.4523276E-2,1.8344496E-1,1.2486873E-1,1.5462516E-1,3.9067015E-2,1.2910952E-1,7.125368E-2,3.051903E-1,2.3298435E-1,4.9952036E-1,1.5202968E-1,2.5560224E-1,1.7149074E-1,1.7520404E-1,8.647197E-2],"categories":[],"categories_nodes":[],"categories_segments":[],"categories_sizes":[],"default_left":[0,0,0,0,0,0,0,0,0,0,0,0,0,0,0,0,0,0,0,0,0,0,0,0,0,0,0,0,0,0,0,0,0,0,0,0,0,0,0,0,0,0,0,0,0,0,0,0,0,0,0,0,0,0,0,0,0,0,0,0,0,0,0],"id":25,"left_children":[1,3,5,7,9,11,13,15,17,19,21,23,25,27,29,31,33,35,37,39,41,43,45,47,49,51,53,55,57,59,61,-1,-1,-1,-1,-1,-1,-1,-1,-1,-1,-1,-1,-1,-1,-1,-1,-1,-1,-1,-1,-1,-1,-1,-1,-1,-1,-1,-1,-1,-1,-1,-1],"loss_changes":[3.2649354E4,1.9806924E3,1.9379453E3,7.004971E2,7.418274E2,6.626133E2,4.0894043E2,1.2758685E2,4.6531543E2,4.798319E2,1.9015259E2,2.1566553E2,3.8284106E2,1.4251343E2,2.8442578E2,9.443945E1,2.3997803E1,3.0110938E2,1.6744873E2,3.658677E2,9.6999146E1,1.13177124E2,5.538208E1,1.068772E2,1.3190283E2,2.3570013E2,1.4973853E2,4.5023926E1,1.0476135E1,1.3361768E2,1.6787598E2,0E0,0E0,0E0,0E0,0E0,0E0,0E0,0E0,0E0,0E0,0E0,0E0,0E0,0E0,0E0,0E0,0E0,0E0,0E0,0E0,0E0,0E0,0E0,0E0,0E0,0E0,0E0,0E0,0E0,0E0,0E0,0E0],"parents":[2147483647,0,0,1,1,2,2,3,3,4,4,5,5,6,6,7,7,8,8,9,9,10,10,11,11,12,12,13,13,14,14,15,15,16,16,17,17,18,18,19,19,20,20,21,21,22,22,23,23,24,24,25,25,26,26,27,27,28,28,29,29,30,30],"right_children":[2,4,6,8,10,12,14,16,18,20,22,24,26,28,30,32,34,36,38,40,42,44,46,48,50,52,54,56,58,60,62,-1,-1,-1,-1,-1,-1,-1,-1,-1,-1,-1,-1,-1,-1,-1,-1,-1,-1,-1,-1,-1,-1,-1,-1,-1,-1,-1,-1,-1,-1,-1,-1],"split_conditions":[7.643975E1,3.1319098E1,1.0835303E2,3.1165E3,1.037E4,5.8495E3,2.819E3,1.4638424E0,6.1574596E-1,8.855052E-1,1.4638424E0,8.877151E1,9.58775E1,1.3015129E2,3.7630662E-1,1.6441185E1,1.918E3,1.3386239E1,2.0641697E1,4.0870102E1,2.819E3,4.241866E1,4.519874E1,5.315102E-1,5.388114E-1,1.5403761E-1,1.1051E4,2.058E3,7.4335325E-1,1.037E4,1.1499E4,-1.489042E-1,-5.744983E-2,-1.2468233E-1,-1.956611E-1,-2.6511043E-1,-1.457139E-1,-2.6998994E-1,-2.0032926E-1,-6.506236E-2,5.802251E-3,-5.1956423E-2,-1.4341632E-1,-1.4831007E-1,-8.006128E-2,-2.486501E-1,-1.1829211E-1,1.2681882E-1,4.4523276E-2,1.8344496E-1,1.2486873E-1,1.5462516E-1,3.9067015E-2,1.2910952E-1,7.125368E-2,3.051903E-1,2.3298435E-1,4.9952036E-1,1.5202968E-1,2.5560224E-1,1.7149074E-1,1.7520404E-1,8.647197E-2],"split_indices":[1,1,1,0,0,0,0,2,2,2,2,1,1,1,2,1,0,1,1,1,0,1,1,2,2,2,0,0,2,0,0,0,0,0,0,0,0,0,0,0,0,0,0,0,0,0,0,0,0,0,0,0,0,0,0,0,0,0,0,0,0,0,0],"split_type":[0,0,0,0,0,0,0,0,0,0,0,0,0,0,0,0,0,0,0,0,0,0,0,0,0,0,0,0,0,0,0,0,0,0,0,0,0,0,0,0,0,0,0,0,0,0,0,0,0,0,0,0,0,0,0,0,0,0,0,0,0,0,0],"sum_hessian":[2E4,1.0513E4,9.487E3,5.494E3,5.019E3,6.63E3,2.857E3,1.056E3,4.438E3,3.734E3,1.285E3,2.48E3,4.15E3,4.42E2,2.415E3,8.47E2,2.09E2,2.819E3,1.619E3,2.995E3,7.39E2,1.058E3,2.27E2,7.03E2,1.777E3,2.075E3,2.075E3,4.06E2,3.6E1,9.31E2,1.484E3,1.34E2,7.13E2,1.09E2,1E2,2.31E2,2.588E3,5.25E2,1.094E3,1.745E3,1.25E3,1.46E2,5.93E2,6.7E2,3.88E2,1.84E2,4.3E1,4.61E2,2.42E2,1.194E3,5.83E2,1.94E2,1.881E3,1.414E3,6.61E2,2.26E2,1.8E2,3.4E1,2E0,6.51E2,2.8E2,1.222E3,2.62E2],"tree_param":{"num_deleted":"0","num_feature":"3","num_nodes":"63","size_leaf_vector":"1"}},{"base_weights":[2.7975134E-4,-1.1721458E0,1.1301178E0,-1.0264826E0,-1.9745945E0,6.330372E-1,1.5432546E0,-1.353477E0,-6.8269557E-1,-2.7302E0,-1.7436591E0,1.344888E0,4.9927703E-1,1.3132342E0,2.0328627E0,-1.1181014E0,-1.736453E0,-3.0773064E-1,-9.296812E-1,-2.5720732E0,-3.9292645E0,-1.4002048E0,-2.0482843E0,2.0437787E0,1.1684667E0,7.152754E-2,7.0789605E-1,1.6869723E0,1.0955563E0,2.2333615E0,1.2066587E0,-1.8654956E-2,-1.2154659E-1,-1.14138775E-1,-1.9050936E-1,1.0717742E-2,-5.4124553E-2,-2.6681153E-2,-1.068358E-1,-3.255254E-1,-2.3727708E-1,-4.6761695E-1,-3.323951E-1,-9.816681E-2,-1.625617E-1,-2.1021819E-1,-8.509774E-2,1.3905554E-1,2.2856033E-1,1.8388009E-1,9.273583E-2,1.6960016E-2,-1.0371923E-1,1.5687193E-1,6.1231386E-2,2.3655562E-1,1.5744497E-1,1.3776581E-1,7.452644E-2,2.1402267E-1,4.2508125E-1,1.6904673E-1,8.585667E-2],"categories":[],"categories_nodes":[],"categories_segments":[],"categories_sizes":[],"default_left":[0,0,0,0,0,0,0,0,0,0,0,0,0,0,0,0,0,0,0,0,0,0,0,0,0,0,0,0,0,0,0,0,0,0,0,0,0,0,0,0,0,0,0,0,0,0,0,0,0,0,0,0,0,0,0,0,0,0,0,0,0,0,0],"id":26,"left_children":[1,3,5,7,9,11,13,15,17,19,21,23,25,27,29,31,33,35,37,39,41,43,45,47,49,51,53,55,57,59,61,-1,-1,-1,-1,-1,-1,-1,-1,-1,-1,-1,-1,-1,-1,-1,-1,-1,-1,-1,-1,-1,-1,-1,-1,-1,-1,-1,-1,-1,-1,-1,-1],"loss_changes":[2.649567E4,1.1453389E3,2.0908428E3,9.3325684E2,2.5820508E2,4.3970874E2,6.2372266E2,3.8188867E2,3.750658E2,5.6444824E1,1.18183105E2,8.774365E1,3.4752612E2,3.062412E2,2.915044E2,2.3922168E2,1.6029541E2,1.5614333E2,2.2428687E2,3.4894043E1,